
#ifndef MODEL_DATA_MLP_H
#define MODEL_DATA_MLP_H

#include <stdint.h>

const float W1[700] = {
    -0.06791516f, 0.00326709f, 0.20274696f, -0.15313436f, -0.00373451f, 0.67910242f, -0.14205486f, 0.21159706f, -0.17840418f, -0.04894501f, 0.18147542f, 0.23724787f, 0.33941177f, -0.16891448f, 0.27890265f, 0.03195017f, 0.17087771f, 0.60393333f, -0.19971591f, 0.23298405f, -0.13366002f, -0.05246741f, 0.31818682f, -0.35978118f, 0.24737452f, 0.78177929f, -0.08826284f, -0.04738373f, -0.08615673f, -0.10374841f, -0.18805760f, 0.18342580f, -0.13895193f, -0.17554504f, 0.00642022f, 0.49014190f, -0.01132020f, -0.23072395f, 0.23793183f, 0.28726834f, -0.18282928f, 0.67737991f, -0.13866106f, -0.01568392f, 0.38053280f, 0.33053073f, -0.31403527f, 0.34216064f, 0.02218824f, -0.18621370f, -0.22676320f, -0.10933439f, -0.17876020f, -0.08234984f, -0.11353339f, 0.23049015f, -0.20714661f, -0.32614076f, 0.16210826f, 0.01988164f, -0.12479546f, -0.04320094f, 0.15428354f, 0.51011944f, 0.29025990f, 0.09389962f, -0.13228016f, 0.57049620f, -0.15624173f, -0.11304022f, -0.07009432f, 0.07556153f, -0.20081487f, -0.23097631f, -0.06709339f, 0.09258987f, -0.22527483f, -0.00370212f, -0.22609413f, 0.00584362f, 0.31282818f, 0.07801542f, -0.03065036f, -0.16293226f, 0.25262839f, -0.20412707f, -0.19953762f, 0.07233673f, -0.12354838f, 0.38195670f, 0.23790815f, -0.08515723f, 0.11548501f, 0.06557464f, -0.14261895f, 0.35378614f, 0.57690555f, -0.09821159f, -0.44808632f, -0.14283729f, -0.15433696f, 1.01362157f, 1.15516138f, 0.17861073f, -0.20104516f, 0.38333690f, -0.07238458f, -0.68216699f, 0.02723733f, -0.22469391f, -0.59498006f, -1.50761855f, -0.52703542f, 1.24258995f, 0.10484599f, 1.20472658f, 0.55377877f, -0.77567244f, 0.05602819f, -0.07819910f, -0.12379685f, 0.04200983f, 0.90478849f, 0.87775451f, 0.06066060f, 0.88651168f, -0.34472367f, -0.06426291f, -0.13977531f, -0.00793017f, 0.22056621f, -0.57571262f, -0.05060549f, -0.04882351f, -0.10516248f, -1.01328301f, -0.52514887f, 0.00871268f, 0.16968241f, -1.10803783f, -0.04834118f, 0.68626392f, -1.07380259f, 0.00216849f, 0.53236234f, -0.81221962f, 0.53748560f, 0.09913666f, 0.48049152f, -0.08810903f, 0.32538393f, -0.08476290f, 0.17648867f, 0.08697215f, 0.01622671f, 0.52705896f, -0.12306126f, 1.01009190f, -0.35893565f, 0.96932602f, 0.22398317f, -0.00386590f, -0.41605777f, 0.28537223f, 0.10839811f, -0.09960595f, 0.42283443f, -0.62829202f, 0.16659835f, 0.80675972f, -0.02766782f, 0.59986049f, -0.13795206f, 0.18417680f, 1.16093385f, 0.75279897f, 0.43181756f, 0.65252453f, 0.07387683f, -0.04393258f, 0.60735059f, -0.73313981f, -0.19516982f, 0.16095641f, -1.22557747f, -0.13285619f, 0.13761246f, 0.60334522f, 0.02782702f, -0.73175436f, 0.63272053f, -0.07279970f, -0.84045410f, 0.50503862f, 1.23176241f, -0.00740693f, -0.34376150f, 0.11400937f, 0.54200488f, -0.08387701f, 0.08489570f, 0.36945871f, 1.86394608f, 0.01396717f, -0.06193990f, 0.91004908f, -0.00988790f, -1.25781453f, -0.11456075f, -0.03532824f, -2.96179223f, -3.37606025f, 0.78894877f, -1.92771864f, -4.02504730f, -0.08613661f, -1.33331823f, 0.77403581f, -0.16670963f, -2.74065733f, 0.18377987f, -0.16144139f, 2.26317358f, -0.12232126f, 1.70411277f, 1.21911323f, 0.14453840f, -0.03163397f, 0.13026223f, -0.07774524f, 1.07784879f, -0.34698957f, -0.04467645f, 0.02853793f, -0.10755792f, 1.01474643f, 1.32242441f, 0.21549869f, -2.71853495f, -2.91524029f, -0.14165428f, 0.06531083f, 0.10055694f, -0.09981409f, 0.34599888f, -0.79841638f, 2.28042579f, 1.46173275f, -0.26714170f, -0.03664918f, -2.43766046f, -0.12496892f, 0.10143167f, -0.17557275f, -0.07860194f, -2.36839509f, 0.04806888f, 0.50531316f, -4.60142422f, 1.50460911f, 0.83743763f, -0.19407177f, 0.58690685f, 1.89155352f, -0.96251732f, -6.09263468f, 0.35829464f, 0.84397405f, 0.19701266f, 2.16676855f, -0.09946129f, -2.46428251f, 0.04454666f, 0.01090996f, 1.75497520f, 2.15640140f, 3.32002783f, 0.06343606f, -0.00975777f, -1.09691441f, 1.34628594f, 0.71113247f, -0.16252270f, -0.13657150f, -2.66869330f, 0.23318297f, 0.19001290f, 1.43521369f, -0.03608054f, -0.67011154f, 3.18452120f, 0.21744220f, 1.18627048f, 1.57417774f, 1.71461594f, 2.00230336f, 0.01874306f, 0.11063222f, -1.24346948f, -0.14766228f, 0.04376364f, 8.33715153f, -1.62467372f, -0.01090523f, 0.17195669f, 0.36596593f, 0.23632082f, -2.11912799f, -0.22684371f, -0.23222132f, -7.26786852f, 3.00419331f, -1.42370236f, -1.50681031f, -1.44130707f, -7.12057018f, -6.86022568f, -2.32053590f, -0.02595472f, 3.83470893f, 0.06320646f, -0.19747883f, 2.14363551f, -10.28806877f, 3.24656367f, 2.06695652f, -10.23629761f, -0.02830979f, 0.17627215f, 0.14394832f, 3.84231186f, 2.63929367f, -0.18738231f, 0.03891668f, 0.15738010f, -2.11695957f, 1.99569380f, 0.21455669f, 2.53953123f, 0.10696668f, -0.02345827f, -0.43629938f, 3.37279820f, 0.04636392f, -4.94188404f, -10.92750835f, -3.03564262f, 1.61880779f, -7.24493694f, -0.04854444f, 2.75364256f, 0.00399405f, -0.00215234f, -0.12197766f, -0.08798556f, 1.90546894f, -0.00326467f, -2.70285535f, -4.82371140f, 7.14260340f, -23.69513893f, -0.06381638f, -0.96009892f, 0.98048311f, -3.40380836f, -10.20321369f, -16.87089539f, -2.34396863f, 0.06498578f, 3.56659865f, -0.23174396f, 3.81642747f, 0.22869807f, 0.05568376f, 5.77538204f, 6.51730919f, -9.40723896f, -8.70657825f, -0.08826374f, -22.60697365f, -3.49629116f, -0.32586080f, -0.14713892f, -0.07439037f, -1.21877801f, -0.11839852f, -0.14880252f, 5.65161753f, 0.00640875f, -6.94246674f, -1.88879263f, 0.01927922f, -2.62479353f, 6.37869501f, 4.45217943f, -1.19267178f, -2.00423479f, -0.03736321f, 2.94373226f, -0.02654193f, 0.17585996f, 0.09379140f, 3.43963003f, 0.18183810f, -0.10744233f, -2.94346404f, -0.11777851f, 1.83749568f, -0.18849544f, -0.10910229f, 13.34684086f, -4.68677711f, -5.23708439f, 0.55002433f, -1.98000240f, 1.47905219f, 2.43740773f, -6.06429958f, 0.13807356f, 4.53945160f, -0.20099474f, -0.09160049f, -0.67083299f, -2.88367081f, -5.61851549f, 2.70346665f, 4.82093477f, -0.08244728f, -0.02021934f, 0.18623775f, -4.82958698f, -11.85234642f, -0.11546458f, -0.10997705f, -0.15922356f, -6.46797419f, -8.95483398f, 0.20524484f, 5.23756123f, 0.51821810f, 0.09183282f, 0.26750550f, -11.27789688f, -0.06062070f, -0.20150770f, -3.37303615f, 4.35283279f, 5.43459463f, 3.42110610f, -0.06946640f, -1.89630151f, -0.14439428f, -0.16603631f, -0.09382048f, 0.02012399f, 4.83416510f, 0.01083238f, -2.96116090f, -9.80994225f, -3.56749606f, -8.57296658f, -0.09695326f, -5.78835058f, -2.31932807f, 5.92165804f, 4.01329374f, 1.69685900f, -0.78244126f, 0.23426160f, -11.97648907f, 0.08887619f, 4.97567511f, 0.16774580f, 0.03445753f, -7.15016317f, -3.76813984f, -1.78870296f, 4.99174500f, -0.12650716f, -0.79829192f, -0.76342487f, -7.68786001f, 0.02909157f, -0.16407469f, 7.54481602f, -0.06939514f, -0.12253559f, 0.06990841f, 0.06688938f, 7.73930979f, -3.53608632f, -0.10933118f, -5.82963228f, -8.67894936f, -6.99764156f, -3.66432166f, -4.84938049f, -0.13309780f, -0.03077661f, 0.10296798f, -0.19684617f, -11.24678230f, 4.08078194f, -0.12441739f, -0.10303614f, -5.70910978f, 0.17074889f, -23.25269318f, -0.16085958f, -0.12998089f, 21.16184044f, -5.97005701f, 10.02577782f, -8.73740482f, -13.21144485f, 5.73789501f, 2.03074789f, 1.70987415f, -0.15076736f, -17.63113403f, -0.11245284f, -0.05548926f, 1.63189399f, -5.11204386f, -10.96319866f, 0.25301817f, 27.93309212f, -0.18599781f, 0.07311273f, -0.05872785f, -4.92154694f, -11.04055214f, 0.08421519f, 0.13853994f, 0.12614265f, 4.85950470f, 5.32387257f, 0.20581743f, -10.67688942f, 8.04323673f, -0.07454421f, 0.49046350f, -18.57325935f, -0.17301589f, 5.44640541f, -28.80653954f, 1.07280958f, -3.67999506f, -4.78187132f, -0.23230347f, -25.06030846f, 0.12074807f, 0.20662403f, 0.10598063f, 0.08153385f, -12.54137897f, 0.14421985f, 5.96882725f, -24.43346977f, -13.82767677f, 1.24335182f, -0.13595904f, 11.61782551f, -7.95167685f, -12.02285957f, 19.48333931f, 7.01691246f, 4.11931992f, -0.00240138f, -6.16941023f, 0.23500052f, -14.82451534f, 0.21318674f, -0.12339278f, -11.83653927f, -19.34099197f, 7.22881699f, 4.72315407f, -0.11571594f, 25.48454285f, 6.90048122f, 9.30585766f, -0.12061924f, -0.11451130f, 17.32532501f, -0.16248579f, 0.13223159f, -18.81616020f, -0.03078800f, -10.55170631f, 5.83431053f, 0.08281182f, 10.11547089f, -17.24688339f, -9.16723537f, 5.96727753f, -14.22990227f, 0.10899305f, -0.57131702f, -0.15976384f, 0.07889450f, -10.50967407f, 15.45682049f, -0.00296584f, -0.01288085f, -4.43754101f, -0.21820629f, -3.91097140f, -0.11876567f, 0.21621019f, 36.35858917f, -24.41553879f, 6.45924568f, -12.92702866f, 15.99955273f, 24.56485748f, 35.39348984f, -1.08131194f, -0.18670528f, -7.79669714f, -0.08679537f, -0.13173668f, 16.79875565f, 7.07717896f, 7.28942728f, 7.37700558f, 24.10201454f, 0.20577586f, -0.02094719f, 0.11707973f, -19.31030464f, -20.64293861f, 0.23152101f, 0.20492026f, 0.18330632f, -1.94874310f, -6.67051983f, 0.08378205f, -5.74782991f, -0.23483832f, -0.15984887f, 11.55370235f, -17.84640884f, -0.01402344f, 13.48968601f, 28.32793045f, 12.24402046f, 18.55477905f, 29.50878143f, 0.08316380f, -34.21766663f, 0.03887835f, 0.19753370f, 0.05249286f, -0.13530961f, -7.82326317f, -0.01005575f, -6.53346252f, -1.26534486f, -15.79745770f, 30.58583641f, -0.11593815f, 0.16880982f, -9.09595966f, 19.25272179f, 13.57523346f, 46.12222672f, 10.35835743f, -0.23285703f, -22.22035408f, -0.04620217f, -9.56987190f, 0.05142707f, -0.15371886f, -19.06803703f, -13.74913692f, 10.77548790f, 36.21835327f, 0.08401838f, 20.22080421f, 6.39411211f, -3.08208323f, 0.14458066f, -0.13248633f, 13.63872623f, -0.03582111f, -0.15888672f, -7.50695610f, -0.05414505f, 35.30266190f, 8.00999737f, 0.07132734f, 3.56141615f, -22.61150551f, -19.70442963f, 6.91372681f, -13.66831970f, -0.08924855f, -4.93549681f, 0.22696599f
};

const float B1[100] = {
    0.00000000f, 0.02104622f, -0.02200492f, 0.00163205f, 0.00000000f, -0.19209570f, 0.00000000f, 0.02675279f, 0.00000000f, 0.00000000f, 0.10367930f, 0.09157597f, 0.01710067f, 0.03454596f, -0.04798116f, -0.00430821f, -0.00497917f, -0.11786286f, 0.00000000f, -0.02160423f, 0.00000000f, 0.00000000f, -0.05319715f, 0.08552542f, -0.04163404f, -0.32299060f, 0.06418274f, 0.00000000f, 0.00000000f, 0.00000000f, 0.10872155f, 0.07586418f, 0.00000000f, 0.00000000f, -0.00367679f, -0.05667876f, 0.09910791f, 0.00000000f, 0.18880293f, 0.06216764f, 0.00000000f, -0.17944758f, 0.10616778f, 0.00000000f, -0.06628411f, -0.04980046f, 0.06596158f, -0.05815911f, 0.01143002f, 0.00000000f, 0.09117133f, 0.00000000f, 0.00000000f, 0.00000000f, 0.00000000f, 0.01301113f, 0.00000000f, 0.08935232f, -0.01568897f, 0.00368427f, 0.03557826f, 0.00000000f, 0.16194224f, -0.15709905f, -0.05076236f, -0.00762025f, 0.04735395f, -0.10783302f, 0.00000000f, 0.07426605f, 0.00000000f, -0.00267630f, 0.00000000f, 0.00000000f, 0.04730907f, -0.01615406f, 0.05071248f, 0.01315429f, 0.00000000f, 0.00753692f, -0.05421517f, 0.06243104f, 0.00000000f, 0.00000000f, 0.10818031f, 0.00000000f, 0.00000000f, -0.01284728f, 0.00000000f, -0.05203323f, -0.03905125f, -0.01663278f, 0.08148716f, -0.01164279f, 0.09579580f, -0.05890760f, -0.13256745f, -0.00192409f, 0.11119121f, 0.00000000f
};

// Layer 2: Weights (100x100) and Bias (100)
const float W2[10000] = {
    0.13215786f, 0.10670775f, -0.07046252f, -0.01958194f, 0.15102372f, -0.12020726f, -0.07607042f, 0.08451495f, -0.09171779f, -0.08633643f, -0.10583608f, -0.03723788f, 0.11454740f, -0.13344476f, -0.08830448f, 0.16389427f, -0.17095093f, -0.07522196f, 0.12587467f, 0.00017793f, 0.09609762f, 0.05017591f, 0.05530982f, 0.13816422f, -0.15162972f, -0.05413873f, 0.08556119f, -0.00275539f, -0.02268000f, -0.00135477f, 0.06008574f, 0.05989352f, 0.12344477f, -0.06833341f, 0.09261316f, 0.06263977f, 0.07069530f, 0.01152110f, -0.01893897f, 0.03955500f, -0.00169200f, -0.03682649f, 0.06958640f, -0.00600900f, 0.13630041f, 0.15119737f, -0.04721139f, -0.10859361f, 0.11959127f, -0.07238077f, -0.17150800f, 0.16880903f, 0.17119342f, 0.10105416f, 0.07342909f, -0.09958533f, 0.10868701f, 0.11607474f, 0.15328500f, 0.07262433f, 0.11642250f, 0.10340109f, 0.05370678f, 0.17137256f, -0.01666415f, 0.04164566f, 0.16273242f, -0.13722183f, -0.12795091f, -0.00998525f, 0.12238580f, -0.12894538f, 0.04187509f, 0.08973470f, -0.13198352f, 0.01262550f, -0.09954164f, 0.06495558f, 0.12022734f, -0.05342750f, -0.13365619f, -0.03166570f, 0.06314470f, 0.04333220f, -0.09065869f, -0.03996238f, 0.16642439f, 0.04022287f, -0.02514856f, 0.14644676f, -0.00366582f, 0.13962907f, -0.10966530f, 0.12499303f, -0.00874478f, 0.09566557f, 0.06326342f, -0.02679409f, -0.16384463f, 0.09413216f, 0.46922055f, 0.10764660f, 0.24031332f, -0.05306195f, 0.18237177f, 0.07767322f, 0.68866843f, 0.05858763f, -0.00277912f, 0.10560474f, 0.64481175f, 0.17167947f, 0.59130883f, 0.13216376f, -0.07661895f, 0.05304121f, -0.05214103f, 0.06493844f, 0.10353535f, 0.08068099f, 0.57533252f, -0.94958454f, 0.43699929f, 0.45629701f, -1.02100384f, 0.27855149f, -0.97900033f, 0.86158413f, -0.07313637f, -0.75779200f, -0.32097551f, 0.08018290f, 0.76146913f, -0.36388096f, -0.14294973f, -0.62906826f, -0.42982554f, 0.17419180f, 0.07369635f, -0.08156296f, 0.01886242f, 0.60709524f, -0.44216728f, -0.28026694f, -0.04125607f, 0.46999228f, 0.48751187f, -0.20484266f, -0.15341850f, -0.02344396f, 0.55294317f, 0.24389873f, -0.19535203f, 0.20781581f, -0.17792265f, -0.78500915f, -0.09302262f, 0.02031556f, 0.20935903f, 0.04468923f, -0.22019088f, -0.09758445f, 0.31320545f, -0.10658900f, 0.03149052f, 0.27471879f, 0.55334723f, 0.02105476f, 0.38365015f, -0.74765718f, 0.90792191f, 0.02823513f, -0.89129651f, -0.15343815f, 0.00544032f, 0.13757251f, -0.29015791f, 0.22790429f, 0.54361504f, -0.13859610f, -0.01900335f, -0.08707729f, 0.93000311f, 0.01395965f, -0.43318570f, -0.91584760f, 0.53451687f, -0.12274457f, 0.42979848f, -0.55304372f, 0.98826563f, 0.03366034f, 0.17525499f, -0.14392066f, 0.06821316f, -0.46379757f, -1.26853347f, -0.04152577f, -0.26589257f, -0.00015415f, -0.22652787f, 0.03079783f, 0.32242802f, 0.11749205f, 0.26836649f, -0.00701286f, -0.04759943f, 0.01256210f, 0.06533909f, -0.08520531f, 0.46453100f, -0.11201195f, 0.22440191f, -0.13854106f, -0.03270402f, -0.10736959f, 0.02124788f, -0.02418315f, 0.00272252f, 0.31513554f, 0.27615032f, -0.24130476f, -0.16722091f, -0.13796337f, 0.54581356f, 0.43358663f, -0.24851580f, 0.28044999f, 0.45974743f, -0.61387563f, 0.05658175f, -0.07333409f, 0.00890220f, -0.52816010f, 0.12925009f, 0.24427885f, 0.12259453f, 0.03573626f, -0.11982301f, -0.23978573f, 0.05485383f, 0.28439936f, -1.55961192f, -0.14631091f, -0.83207083f, 0.20927261f, -1.17228127f, -0.02963217f, 0.05975084f, 0.17069189f, 0.39847535f, -0.06295227f, 0.00421131f, 0.37580821f, 0.04021314f, 0.60567439f, -0.02894853f, 0.10807991f, 0.23684955f, 0.21117286f, 0.16160347f, 0.00611901f, -0.15659085f, 0.03567655f, -0.05686092f, -0.13223404f, 0.21789788f, 0.04580302f, 0.34010741f, 0.46423414f, 0.06124325f, 0.16476703f, 0.58247542f, -0.38455203f, -0.03174354f, 0.18989162f, 0.16792528f, 0.14902034f, -0.36265379f, -0.10587727f, 0.13627653f, -0.06501675f, -0.01003581f, -0.17097943f, -0.13436440f, -0.12299068f, 0.47465613f, -0.08208181f, 0.21250668f, 0.57445621f, -0.63053375f, -0.13075544f, -0.15577684f, -0.00429467f, 0.26343542f, 0.06258634f, -0.42612198f, -0.10203926f, -0.30146694f, -0.04330872f, -0.10823542f, 0.03087130f, 0.05972704f, 0.16535550f, -0.15062468f, 0.08872083f, -0.12362295f, 0.08833152f, -0.03871022f, 0.13154322f, 0.01597490f, -0.14957094f, -0.16820991f, -0.07104230f, 0.08833772f, -0.11505699f, 0.16713274f, -0.02284572f, 0.02634395f, -0.04925548f, -0.01261020f, 0.09238541f, 0.03933650f, 0.12335414f, 0.02643688f, 0.13916579f, -0.14275214f, -0.13601336f, -0.08501294f, -0.12063301f, -0.00770129f, -0.10321902f, -0.08155373f, -0.06427759f, -0.11904193f, 0.15603766f, -0.08288964f, -0.07858477f, 0.14553267f, -0.01964594f, 0.15672642f, 0.01961905f, -0.06943213f, -0.14255112f, -0.07992880f, -0.13170655f, -0.08833537f, -0.12982357f, -0.12293551f, 0.09825799f, 0.06009971f, 0.13994548f, -0.14485350f, 0.12730707f, -0.08845233f, 0.06464563f, 0.02855736f, -0.08534126f, 0.07912049f, 0.01611442f, 0.16297927f, 0.03781296f, 0.14191192f, -0.16548628f, -0.01444377f, -0.03706460f, -0.06786937f, -0.04993226f, -0.13859241f, 0.01471783f, 0.16779384f, -0.12900171f, 0.13164490f, 0.10888395f, 0.14099494f, 0.07235634f, -0.08212029f, -0.07703359f, 0.05244513f, -0.00187647f, 0.01782611f, -0.17017715f, -0.07303277f, 0.04641968f, -0.00186114f, -0.09335878f, 0.04455607f, -0.14863031f, 0.08981287f, 0.01329102f, -0.00725316f, -0.16031834f, 0.00133644f, 0.01660943f, 0.01869094f, 0.15863052f, 0.02947803f, -0.09707943f, 0.10826097f, -0.07778607f, -0.11836483f, 0.11995947f, 0.10731909f, -0.05252392f, 0.10556757f, 0.12750167f, -0.01359251f, -0.08788191f, -0.15277158f, 0.03470004f, 0.06782560f, 0.06615397f, 0.14122775f, -0.02629875f, 0.10143197f, 0.07513863f, -0.12304449f, 0.07390027f, -0.02201714f, 0.16412717f, -0.05132065f, -0.13755794f, 0.14157861f, 0.13338640f, 0.11858612f, 0.02016896f, 0.07161561f, -0.15455294f, -0.00971456f, 0.16476288f, 0.01430635f, 0.09384036f, 0.07851687f, 0.02847563f, 0.13047582f, -0.08465154f, 0.15025324f, 0.00860916f, 0.05077481f, -0.10033633f, -0.13699438f, -0.16092996f, -0.16102375f, -0.06309535f, 0.00613661f, 0.02823794f, 0.13990763f, 0.00619021f, -0.06578747f, 0.04513226f, -0.03635725f, 0.02572891f, -0.13169783f, -0.15403807f, -0.03284675f, 0.16264665f, -0.05301252f, 0.16490042f, -0.15666193f, 0.07900301f, 0.02136037f, -0.12836906f, 0.07781997f, 0.00378145f, 0.04911928f, 0.09365165f, 0.02579442f, -0.13702142f, 0.00419949f, -0.16989650f, -0.12893440f, 0.16535479f, 0.14901647f, 0.14298508f, 0.14553839f, 0.03968360f, -0.06352940f, -0.12451944f, -0.01610054f, 0.07076491f, -0.01583271f, 0.05456536f, 0.14268124f, 0.17034084f, -0.11332247f, 0.16424409f, 0.04593025f, -0.03938007f, 0.01565415f, 0.07705098f, 0.02277234f, 0.06483528f, 0.08273268f, -0.10147186f, 0.02010602f, 0.08032948f, 0.09239012f, 0.12455657f, -0.14243792f, -0.09824616f, -0.41163144f, 0.12515441f, 0.08935764f, -0.14650308f, -0.36816838f, -0.07181854f, -0.00903340f, -0.13066046f, -0.33741319f, -0.13330914f, -0.65561557f, -0.10131168f, -0.62500679f, -0.05660158f, 0.12181839f, -0.15744902f, -0.11658581f, -0.16058618f, -0.67594254f, -0.59262323f, -0.14525244f, -0.39261264f, 0.13724656f, -0.22231476f, -0.42407194f, -0.11877727f, -0.42194721f, 0.05417831f, -0.70955598f, -0.07064359f, 0.55016774f, 0.14587770f, -0.62858176f, 0.77273673f, -0.10876676f, -0.03625500f, -0.30626419f, -0.24095948f, -0.13550217f, 0.47429904f, -0.15372728f, -0.77945322f, 1.28850698f, 0.02450682f, 0.21964327f, -1.02122831f, -0.10330813f, 0.31001979f, -0.04621103f, 0.37194455f, 0.22137997f, 0.10446955f, 0.23897591f, -0.41164741f, 0.07593118f, -0.57910573f, 0.03196958f, -0.15336074f, -0.88014084f, -0.05076930f, 0.27326918f, -0.09290350f, -0.54649520f, -0.16203173f, -0.05948858f, -0.08645105f, -0.32596421f, -0.02344486f, -0.18599196f, 0.54677218f, -1.07138407f, -0.33872217f, -0.18544669f, -0.05617248f, 0.08753198f, -0.14558165f, -0.28236175f, -0.22396125f, -0.72359324f, -1.35602069f, 0.33519825f, 0.10724076f, 0.15940744f, -0.13683204f, 0.59341633f, 0.48152536f, -0.36265817f, -0.04444880f, 0.46051776f, -0.85257798f, 0.54073817f, 0.16069135f, 0.64549041f, 0.09977750f, -1.49445903f, 0.62664592f, 0.23990737f, -0.14010759f, 0.35092497f, -0.15720931f, -0.00187609f, -0.10366481f, 0.11863366f, 0.06447172f, -0.03172785f, -0.06033786f, -0.13205735f, 0.02812132f, -0.05955163f, -0.09540319f, -0.16293164f, 0.08538488f, 0.02323732f, -0.08879457f, 0.06865571f, 0.11741248f, -0.12294914f, -0.00307637f, 0.03928947f, 0.15699247f, -0.13724780f, 0.14482546f, 0.04233025f, -0.08920732f, -0.10279939f, 0.01920277f, -0.13095526f, -0.15858653f, 0.02591099f, 0.15700349f, -0.01977062f, 0.05674995f, 0.16135865f, -0.14501959f, -0.12598629f, -0.03229652f, -0.13021174f, 0.02753790f, -0.09995282f, -0.11684598f, -0.02422474f, 0.08184341f, -0.09958868f, -0.13222894f, -0.11131150f, 0.13593322f, -0.09758234f, 0.17083263f, 0.00417525f, 0.01651429f, 0.06789295f, 0.10201222f, 0.09588882f, 0.09136039f, -0.08674137f, -0.13750322f, 0.00817601f, -0.00893404f, 0.13057321f, 0.09256563f, 0.06894140f, -0.01447991f, 0.00847392f, -0.12424867f, 0.01161480f, -0.02502376f, 0.08536324f, -0.03342780f, -0.01902074f, 0.02229166f, -0.04718108f, 0.05941994f, -0.07279743f, -0.01036219f, 0.11807546f, -0.04321538f, 0.10357347f, 0.16313055f, 0.13003764f, 0.15093979f, -0.12903425f, 0.12101451f, 0.01899618f, -0.07515911f, -0.00362399f, -0.01596113f, 0.10097331f, 0.02095076f, -0.16522968f, 0.01438513f, 0.14008406f, -0.03154197f, -0.03607476f, -0.05257723f, 0.16043946f, -0.06227477f, 0.05273807f, 0.07085849f, 0.08692291f, 0.09297973f, 0.14151157f, -0.18837368f, 0.58266419f, 0.08870161f, 0.71551627f, 0.08953664f, 0.90110540f, -0.04504632f, -0.54554850f, 0.01151511f, -0.48672664f, 0.02934630f, 0.66866386f, -0.14239754f, -0.05304308f, 0.06044397f, 0.00647062f, -0.15903525f, -0.44878128f, -0.54982215f, 0.71053463f, 0.37156266f, 0.29716256f, -0.64121652f, -0.39439163f, -0.22464675f, -0.42036816f, 0.31753221f, -0.18483949f, 0.15020736f, -0.66327083f, 0.13832730f, -0.34776098f, 0.21244651f, 0.01878205f, 0.34953234f, -0.94843227f, 0.44051963f, 0.15926239f, 1.14779091f, -0.22227491f, 0.54604506f, 0.19752610f, -0.67362219f, 0.67757690f, -0.29577720f, 0.13783884f, -0.32751876f, 0.14702673f, -0.82524359f, -0.31117266f, -0.53998917f, -0.17150463f, 0.09976477f, -0.00179235f, -0.29771364f, -0.16539189f, -0.10351305f, -0.46801820f, -0.50840801f, -0.35618991f, 0.06005627f, 0.20009688f, 0.00916817f, 0.09430824f, -0.26503128f, 0.95613247f, -0.07752915f, 0.18411905f, 0.27955419f, -0.42104229f, -0.40788236f, -0.55114782f, 0.29403228f, 0.07217759f, 0.07053734f, 0.38571224f, 0.05889597f, 0.57178056f, 0.65021974f, -0.18620659f, 0.04529981f, 1.15393651f, 0.00835452f, 0.24761289f, -0.35250446f, 0.04628663f, 0.12824601f, 0.22182380f, -1.02213192f, 0.81693447f, -0.08428723f, 1.12387586f, 0.18783358f, -0.24861203f, -0.45535591f, 0.42869437f, 0.32956865f, 0.29874787f, 0.06822404f, 0.00550306f, -0.04061832f, 0.14758766f, -0.03633524f, -0.02756177f, 0.05276528f, -0.10120010f, -0.11323206f, -0.09561148f, 0.06752105f, -0.17088853f, -0.12146123f, -0.16914675f, 0.02116311f, 0.04280697f, 0.17235878f, 0.09538877f, -0.03885546f, 0.08435449f, -0.07564218f, -0.13301702f, -0.14985779f, -0.06235240f, -0.07075802f, -0.02745366f, 0.03931004f, 0.12813389f, -0.14944962f, -0.06580164f, -0.06064237f, -0.14613847f, -0.00323685f, -0.06261826f, -0.01058415f, 0.05904366f, 0.11247778f, 0.07976869f, 0.02164018f, 0.06061590f, 0.12957340f, 0.12061384f, -0.09142401f, -0.02564885f, 0.04416835f, 0.01502377f, -0.04804952f, 0.05687471f, -0.08955016f, 0.08584374f, -0.10429081f, 0.00399359f, 0.00446093f, 0.13679722f, -0.16893040f, -0.10056511f, -0.06547160f, -0.01457737f, 0.11236560f, -0.06181461f, -0.15505967f, 0.02011602f, 0.14707580f, -0.07401911f, 0.07650568f, -0.08600892f, -0.13739297f, -0.15014276f, 0.13018462f, 0.12345913f, 0.01134638f, 0.07458936f, -0.17251033f, 0.02777329f, -0.07310760f, -0.04063876f, -0.03189935f, 0.06873551f, -0.11192574f, -0.02293277f, 0.04592876f, -0.11998063f, 0.07028250f, 0.07237759f, 0.00845790f, 0.11196148f, 0.06953415f, -0.05063275f, 0.06226300f, 0.03658785f, 0.16495728f, -0.09903304f, 0.11819592f, 0.10631540f, 0.03164744f, -0.07073221f, 0.01925203f, -0.10020344f, 0.11163589f, 0.02619903f, -0.00439382f, -0.15834942f, -0.10968146f, -0.16438919f, -0.10342927f, -0.07519161f, 0.13493854f, -0.04211642f, -0.08446030f, 0.08307117f, 0.14889809f, 0.07407118f, 0.15731180f, -0.10875099f, -0.00931408f, -0.11038108f, -0.06442613f, -0.14626583f, 0.07255825f, 0.16736832f, 0.11529711f, 0.11027083f, -0.11877543f, 0.08384299f, 0.08208206f, 0.01145296f, 0.10003206f, -0.01778741f, 0.03234248f, 0.06563963f, 0.09615004f, 0.14001104f, 0.05979140f, -0.08722424f, -0.11954533f, -0.05311114f, 0.00940479f, -0.11971704f, 0.00743333f, -0.09202325f, -0.10605531f, 0.07704651f, 0.13258860f, -0.03149420f, -0.09249493f, 0.12541839f, -0.00682656f, 0.06846333f, 0.08627099f, 0.16319728f, -0.13762495f, 0.04559201f, 0.08771190f, -0.08964860f, -0.02641734f, -0.12748577f, -0.02240720f, -0.15524232f, -0.04116556f, 0.10608974f, 0.05706310f, 0.07839540f, -0.15890794f, 0.06707720f, 0.14341244f, 0.04453121f, 0.06131585f, 0.01919584f, -0.08466472f, -0.10400541f, -0.02285352f, 0.04243423f, -0.14390288f, 0.04729304f, 0.03104268f, -0.02182846f, 0.17245069f, 0.16341078f, -0.13392572f, 0.01291205f, 0.00618702f, -0.01230551f, 0.10693586f, 0.14235377f, -0.15391397f, -0.07699725f, 0.12389678f, -0.10629396f, -0.04458390f, -0.05838178f, -0.10702484f, 0.04436174f, -0.07516725f, -0.03897505f, -0.06285460f, 0.03823549f, -0.08813724f, 0.14028057f, 0.13612002f, -0.14285043f, -0.04596415f, -0.32881534f, -0.05499939f, -0.10582458f, -0.16569969f, -0.37076876f, 0.08203980f, -0.64511442f, 0.04653544f, 0.64354968f, -0.05538217f, -0.11637515f, 0.14010796f, -0.45231876f, 0.15242255f, -0.03313173f, -0.08979724f, -0.06109713f, 0.01533993f, -0.12855913f, 0.04269614f, -0.75437593f, 0.46516851f, -0.39515275f, 0.02842975f, 0.25810435f, 0.17536460f, 0.39631179f, -0.46463451f, 0.01113691f, 0.31288686f, 0.17332362f, -0.10669832f, -0.21875200f, 0.14962135f, -0.17126063f, 0.57166421f, 0.62489593f, -0.25234479f, 0.16444024f, -0.73529202f, -0.00901137f, -0.62201810f, 0.19881164f, 0.95077634f, 0.26576674f, -0.42291865f, 0.31897008f, 0.18556738f, 0.00472269f, 0.45068416f, 0.09701295f, -0.06303744f, 0.67038339f, -0.03416871f, -0.05571992f, 0.21876341f, 0.08212994f, -0.04794584f, 0.20034419f, 0.22056527f, 0.22619444f, -0.05470794f, -0.23707718f, -0.06790361f, 0.14790681f, 0.19762152f, -0.33612618f, 0.09536824f, -0.57962120f, 0.77813518f, -1.01655149f, -0.03741851f, 0.79365736f, 0.55758959f, 0.05765887f, -0.22396316f, 0.55443782f, 0.24438246f, 0.23570374f, 0.23377740f, 0.25307631f, -0.03270197f, -0.63826072f, -0.08645932f, 0.35495028f, 1.08305001f, -0.43994316f, -0.08806188f, -0.21166365f, 0.43972012f, -0.49602056f, -0.11943598f, 0.10580404f, 0.65849352f, -0.02475047f, 0.50748605f, 0.27868435f, -0.35509825f, 0.11186667f, -0.05787374f, -0.23297511f, 0.01610211f, -0.05796088f, 0.16815206f, 0.13311283f, 0.10453807f, 0.10966812f, 0.13451707f, 0.21069123f, -0.00831795f, -0.30068544f, -0.00340410f, -0.13786761f, -0.14129533f, 0.03850262f, -0.20995861f, -0.01906769f, -0.02731965f, 0.06480088f, -0.21635135f, 0.16168560f, 0.12216502f, 0.55058032f, 0.23769441f, -0.57794219f, 0.07447486f, 0.26956400f, 0.01064211f, -0.49392822f, 0.23501100f, 0.15052567f, -0.17592451f, 0.25040573f, 0.02257607f, 0.14672093f, 0.03849266f, 0.08738428f, -0.06776118f, -0.01062243f, 0.19285741f, -0.11945470f, -0.15396856f, 0.60974467f, 0.32050157f, 0.44693044f, 0.15881155f, 0.39537320f, 0.16725045f, 0.15874948f, -0.08138122f, -0.13452694f, 0.10622086f, 0.07299372f, -0.19853358f, -0.04590456f, -0.90515769f, 0.10488076f, -0.07881305f, 0.08306481f, -0.15335160f, 0.06772100f, -0.08220410f, -0.18448794f, -0.06176199f, -0.10968664f, -0.07301666f, -0.03057416f, 0.13035280f, -0.17060703f, -0.19351022f, -0.48954460f, -0.44173175f, -0.35695708f, 0.38310495f, -0.08771809f, -0.05891850f, 0.02205789f, -0.07191641f, 0.32525444f, 0.21860224f, 0.05719202f, 0.12122490f, 0.18936531f, -0.15267052f, 0.51397061f, 0.37148291f, -0.19055940f, -0.13174245f, 0.21883036f, -0.58987778f, 0.28749505f, -0.05527183f, 0.42768800f, 0.39132711f, -0.79763395f, 0.30584016f, 0.09741654f, 0.20318113f, 0.18447608f, 0.08219220f, 0.11889438f, -0.18582201f, -0.04768076f, -0.16549714f, -0.05208892f, -0.00038742f, -0.26432168f, 0.08627512f, 0.27023780f, -0.11787271f, 0.19941966f, -0.05180137f, -0.01368901f, 0.16637483f, 0.08075830f, 0.07334143f, -0.10904621f, -0.11019711f, -0.04516357f, 0.09038734f, -0.18142797f, -0.10802410f, -0.22667249f, -0.10598750f, 0.04465129f, 0.19812112f, 0.23779494f, -0.20489863f, -0.01545995f, -0.14346159f, 0.29486123f, -0.17794494f, -0.04034366f, 0.09176440f, 0.10303691f, -0.01519474f, 0.45432407f, 0.16660863f, 0.12510112f, -0.38100001f, 0.02477384f, -0.19375058f, 0.31919131f, 0.34134680f, 0.12744772f, 0.01691692f, 0.03093228f, 0.19798012f, 0.02726219f, 0.26386499f, 0.07213695f, 0.14857535f, 0.17241421f, 0.22667180f, 0.10740416f, 0.23352501f, 0.02699205f, -0.14631221f, 0.07823200f, -0.02697145f, 0.06943515f, -0.06638006f, 0.09290786f, -0.15490177f, -0.10600369f, -0.01439698f, -0.14954823f, -0.17309219f, -0.01929485f, 0.33520198f, -0.05635701f, -0.06543763f, 0.28841913f, 0.28744894f, -0.09060067f, -0.06515436f, 0.12924336f, 0.00301441f, 0.13578498f, -0.00881469f, 0.20404556f, -0.18559085f, -0.15415685f, 0.02166362f, 0.29213980f, 0.45443815f, 0.19475678f, 0.05706287f, -0.11928105f, 0.26265842f, -0.24197528f, -0.16204560f, 0.01264230f, 0.09487928f, -0.19803411f, 0.14745602f, -0.10172600f, 0.06050289f, 0.29734892f, -0.00041730f, -0.27753231f, -0.04912258f, 0.85760874f, -0.15940543f, 0.65468580f, 0.13042542f, 0.16975744f, -0.13718402f, -0.14113227f, 0.05663322f, -0.67850286f, -0.05796866f, -0.30431196f, -0.05508505f, 0.02172246f, 0.01053470f, 0.07933035f, -0.15246835f, -0.30510899f, -0.89022690f, 0.78559953f, 0.79247952f, 0.91747665f, 1.58851969f, -0.73643190f, 0.12544666f, -1.75429201f, -0.08274876f, 1.41611385f, 1.41907966f, -0.11158657f, -0.11836033f, 1.85848546f, -0.27412793f, 0.12428109f, 0.49604872f, -0.69188005f, 0.03070074f, -0.11896518f, 0.08749650f, -0.04746446f, 0.81192744f, -0.30820775f, -0.70645374f, 1.15494037f, 1.06456733f, 1.39350510f, -0.08932552f, 0.12864688f, -0.15838633f, 0.77741498f, 0.06021185f, 0.12520455f, -0.38371512f, 0.08750353f, -1.23291969f, -0.12847814f, -0.16569193f, -0.29056707f, -0.62986511f, 0.27372703f, 0.06491531f, 0.27939540f, 0.03779193f, 0.13429984f, 0.12834954f, 0.37898624f, 0.03855120f, -0.46356142f, -1.67119884f, 1.83163071f, 0.75501889f, 0.22666095f, 0.73526275f, -0.01214164f, -0.32851130f, 0.40385547f, -0.31951576f, 0.87966949f, 0.66403526f, 0.31917658f, 0.08060890f, -0.42204568f, 0.09217163f, -1.26101971f, -0.32758537f, -0.22373532f, -0.14935604f, 0.27001852f, -0.81281799f, 0.31941494f, 0.13971090f, 0.21052349f, 0.86957216f, 1.42230475f, -0.14695941f, 1.44978917f, -0.49781069f, -1.08576691f, -0.13937826f, -1.26415122f, -0.13914174f, 1.68743598f, 0.17274702f, 0.50750422f, -0.07974914f, -0.00206085f, -0.17490944f, -0.44182694f, 0.13233995f, 0.83456904f, 0.14053711f, 0.26730070f, -0.08813550f, -0.11117402f, -0.13662574f, -0.03126405f, 0.04139653f, -2.24000978f, 0.62843907f, 0.44258103f, 0.90277123f, -2.03063345f, -2.44446945f, -1.18804264f, 0.04087996f, -3.03570127f, -0.51425612f, -0.14020932f, 1.61621237f, -0.42134553f, -0.09256806f, -1.95357752f, 0.15459353f, 0.03060263f, 1.23502040f, -1.93489826f, -0.84039450f, -0.04687794f, 0.40038338f, -1.10643852f, 0.72712851f, -1.79182732f, -0.47753346f, 0.47448465f, 0.38289052f, -1.05463624f, 0.84828573f, -0.08512551f, -0.47433922f, 0.33947682f, -2.36925793f, 0.64473176f, 2.00501180f, -0.05885770f, -1.72617388f, 0.16554265f, -0.08400395f, -0.08419143f, 0.06254856f, 0.37597126f, 0.16853771f, -0.19174445f, -0.06286907f, -0.16704571f, -0.15819351f, 0.33998778f, -0.13090959f, -0.25743136f, 0.30137649f, -2.28871369f, -0.42460153f, 0.74687380f, 0.21011654f, -0.02006663f, -0.01988810f, 0.05269718f, 2.16809940f, 0.49902999f, 1.59481859f, -0.06516150f, 0.06935856f, 0.82490534f, -0.06635203f, 0.97574914f, -0.00214222f, -0.47978932f, -0.17132957f, 0.25624022f, -0.84835625f, -0.02452583f, -0.07986446f, 0.01690977f, -0.13972805f, -0.15417409f, 0.56589592f, 1.64224935f, -0.60900617f, 0.05144598f, -0.12477282f, -0.55156630f, -0.14205384f, 0.68726367f, 0.02980794f, 0.11914656f, -0.11178432f, -0.51429361f, 0.01885957f, 0.24164376f, 0.05036780f, 0.77513093f, -0.13330191f, 0.12164871f, -0.14245412f, -0.02132054f, 0.31799689f, 0.16818476f, 0.15306866f, -0.22148673f, 0.32803264f, 0.15046273f, 0.52813596f, -0.24478744f, 0.01179346f, 1.58505130f, 0.73217881f, -1.46049893f, -0.00290329f, 1.26517868f, 0.85718906f, 0.32884106f, -0.07524248f, 0.01896792f, -1.00265741f, 0.08548871f, 1.27757037f, -0.70013261f, 0.00321650f, 0.04917206f, -0.89843285f, 0.36558220f, 0.69783503f, -4.38632345f, 0.64401007f, -1.09352839f, -0.28183168f, -1.84876585f, -0.02385117f, 0.07155649f, 0.50426567f, 0.84739852f, -0.45492497f, 1.07969558f, 0.92036450f, -0.00888758f, 0.90105730f, -0.03641653f, -0.06781697f, -0.41920641f, 0.41399127f, 0.49826437f, -0.06154657f, -0.42247915f, -0.15453704f, 0.07623158f, -0.06997110f, 0.17702526f, 0.13458976f, 0.12959081f, 1.18962121f, 0.28235826f, -0.10929693f, 1.60149026f, -0.62986308f, -0.16211829f, 0.03076947f, 0.40440214f, 0.45361555f, -0.32798269f, 0.65136516f, 0.49317417f, 0.03446448f, -0.14956316f, -0.14038464f, -0.43351915f, 0.26056817f, 0.10813225f, 0.13763921f, 0.81660932f, 1.26863110f, -0.82808149f, 0.04093166f, -0.58889699f, 0.64398313f, 1.09950256f, 0.18720333f, 0.77345794f, -0.36246565f, -0.59473467f, 0.00821243f, -0.76655877f, 0.03859136f, 0.89019257f, 0.03697553f, -0.13092422f, 0.00158339f, -0.49106878f, 0.00633702f, -0.29146895f, 0.01471117f, 0.63009971f, -0.01307376f, -0.14457753f, -0.15048531f, -0.06138077f, -0.15468849f, 0.09034154f, -0.10797187f, -0.79115379f, 0.32814413f, 0.01896539f, 0.77142245f, -0.97683996f, -0.73646504f, 1.21085739f, 0.24463683f, -1.44201183f, -0.49057472f, 0.99557775f, 1.02257884f, 0.16360141f, -0.04723397f, -0.68643975f, -0.01917575f, 0.14068489f, 1.49885988f, -0.99667400f, -0.45537817f, 0.13042715f, -0.35500228f, -0.09429520f, 0.35308075f, -2.16827488f, 0.26851484f, -0.59350419f, -0.28724810f, -1.67277122f, 0.45087996f, 0.03353400f, 0.15285046f, 0.73598558f, -0.97117704f, 0.89254147f, 0.92707974f, 0.08821800f, 0.76655632f, 0.09396449f, -0.08714347f, -0.46122405f, 0.23697899f, 0.36803591f, -0.08115858f, -0.15731302f, -0.03316128f, 0.00471223f, -0.06888548f, -0.05921740f, 0.08516798f, -0.31366944f, 1.49745619f, -0.62386769f, -0.10588982f, 1.21248865f, -0.33407333f, -0.16335702f, 0.13892294f, 0.53597063f, 0.78858829f, -0.36987460f, 0.94143564f, 0.44204438f, 0.11860307f, -0.00133491f, 0.14946610f, 0.08335077f, 0.47722957f, -0.38071486f, -0.03948503f, 0.87192482f, 1.00239491f, -0.70379645f, 0.06123854f, -0.34196296f, 0.74255568f, 0.70938694f, 0.57672924f, 1.19651735f, -0.41389596f, -0.23706248f, -0.00834363f, -0.27668270f, 0.13928513f, 0.11903195f, 0.16851076f, 0.19474785f, 0.02422084f, -0.24774313f, -0.00551710f, 0.14509593f, 0.12459192f, -0.46559155f, -0.03933002f, -0.08291891f, -0.08895567f, 0.01070587f, -0.21803747f, -0.17355786f, -0.15726095f, -0.14050797f, 0.12782900f, -0.34533420f, 0.28730580f, -0.34396714f, -0.15047768f, 0.25991955f, -0.22145508f, 0.44571450f, -0.18344969f, -0.12545365f, -0.46669874f, 0.39562324f, 0.03912151f, -0.52265573f, 0.08922547f, 0.00680717f, 0.20357268f, 0.03836071f, 0.11624409f, 0.05569907f, 0.42588669f, -0.07490151f, -0.11807404f, 0.56980741f, -0.07935189f, -0.35627845f, -0.38946900f, -0.77829224f, 0.16609980f, -0.13177273f, -0.29103306f, -0.06356621f, 0.05452203f, -0.22959819f, -0.29064813f, 0.12908010f, 0.12648213f, 0.05373532f, 0.02017850f, 0.10631531f, -0.08306532f, -0.00291624f, 0.04697627f, -0.12266161f, 0.09830225f, 0.02305733f, -0.22992004f, -0.24651797f, 0.13974260f, -0.15258455f, 0.29265165f, -1.25291049f, -0.57431310f, -0.29590440f, 0.11452750f, -0.13097766f, -0.21321583f, -0.01268881f, -0.07292033f, -0.56167096f, -0.23463202f, -0.06987648f, -0.01796815f, -0.48474962f, 0.01282996f, 0.76738781f, 0.34153214f, 0.30320159f, -0.11061919f, -0.02145945f, 0.10909151f, -0.42927128f, -0.10011874f, -0.02790587f, 0.07260099f, -2.53556538f, 0.52430379f, -0.10746810f, -0.04743936f, 0.38351360f, -0.16225821f, 0.02628161f, 0.14559636f, 0.00122540f, -0.01605256f, 0.01404767f, 0.15054381f, 0.00877240f, -0.16788925f, 0.14311075f, -0.03365052f, -0.13756141f, -0.11343912f, -0.07406723f, 0.13654509f, -0.16765065f, -0.01032668f, -0.03771059f, 0.08556846f, 0.10370040f, 0.14966238f, -0.14660934f, -0.17217624f, -0.05473305f, 0.04485691f, -0.00842139f, 0.06986831f, 0.11052021f, -0.09588143f, -0.06687053f, 0.02997267f, -0.10300921f, 0.06999196f, -0.04781473f, 0.07131535f, -0.10156853f, -0.15068802f, -0.16740325f, -0.05108147f, -0.15167944f, -0.11755180f, 0.14257759f, 0.06727295f, -0.00767551f, -0.05745231f, 0.01000965f, 0.03696921f, 0.01721556f, 0.05387625f, 0.04580685f, -0.10281751f, 0.08555815f, 0.15141201f, -0.11931710f, 0.00758475f, 0.01347652f, -0.09838599f, 0.11346748f, -0.11760941f, 0.01193373f, 0.13236117f, 0.05003951f, -0.01668376f, -0.15132558f, 0.14462644f, 0.12731600f, 0.08827686f, 0.13065335f, 0.07345791f, 0.04814033f, 0.08817217f, -0.03101508f, -0.12982044f, -0.16118194f, 0.13746038f, -0.03166611f, 0.08244717f, 0.09404582f, 0.11643761f, 0.01787286f, -0.13241956f, 0.08927992f, 0.02413574f, 0.06533153f, 0.02533264f, -0.15293638f, 0.12693757f, -0.03346477f, 0.05269533f, 0.14259997f, 0.13267267f, 0.12479189f, 0.06026039f, -0.13883957f, -0.16516662f, -0.00262602f, -0.02695291f, -0.17050061f, 0.02629368f, -0.15601173f, 0.14510849f, -0.02512972f, -0.07194626f, 0.60436672f, 0.04874894f, 0.51527590f, 0.00187631f, 0.77985531f, -0.08875759f, -0.48596603f, -0.11654560f, -0.14605680f, 0.03744085f, 0.25089470f, -0.03169344f, -0.12227914f, -0.33502311f, 0.08934798f, 0.00163455f, -0.85144490f, -0.21833332f, 0.54289997f, -0.17262925f, 0.59597486f, -1.01033235f, -1.50076985f, -0.20600373f, -0.70023650f, 0.30943066f, -1.04458141f, 0.43629384f, -0.42441037f, -0.11642776f, 0.12734543f, -0.18901180f, -0.06213629f, -0.01883229f, -1.17672789f, 0.18147384f, -0.10347349f, 1.14611971f, -1.09866631f, 0.29284367f, 0.29921713f, -0.43827248f, 0.69084924f, -0.09993356f, 0.57622689f, 0.00425275f, -0.09588903f, -0.49679771f, 0.03861894f, -0.49834812f, 0.07685765f, 0.12866811f, -0.15773678f, -1.35042727f, 0.13719420f, 0.16410083f, -0.35014123f, -0.20487942f, 0.08153225f, -0.10640261f, 0.05191089f, -0.06026709f, -0.14531125f, 0.13693126f, 0.77669966f, -0.04485748f, -0.02460801f, 0.31021938f, -0.05528229f, -1.03776038f, -0.83233941f, 0.16952024f, 0.09813488f, 0.00998909f, -0.10375363f, 0.09459480f, 0.61299676f, 0.39681387f, -0.16107239f, 0.10023478f, 1.65193188f, 0.11376090f, 0.29731491f, -0.19111787f, -0.06670736f, -0.10477247f, 0.67635638f, -2.36629796f, 1.39290190f, -0.04413716f, 0.83457094f, 0.18119626f, -0.36436164f, -0.33853883f, 0.02938916f, 0.19282760f, 0.05324692f, -0.03751190f, -0.06323464f, 0.13347226f, -0.15889072f, 0.10743648f, -0.09358330f, -0.10195812f, 0.07251237f, -0.12757075f, 0.16651338f, 0.10859349f, 0.12897173f, -0.00703874f, 0.01537450f, -0.07343074f, 0.05048607f, -0.16509467f, 0.09197247f, 0.03200246f, -0.07349487f, -0.16140470f, -0.09645486f, -0.00150327f, 0.01833785f, 0.17043060f, 0.10875627f, 0.16544574f, -0.12063743f, 0.02629718f, 0.11537382f, 0.05360003f, 0.05708878f, 0.09443066f, 0.06537510f, 0.15346527f, 0.00866652f, 0.06162792f, 0.14164445f, -0.03677471f, -0.10561882f, 0.04573038f, 0.12122792f, 0.05824353f, 0.16227090f, 0.04992533f, -0.05598207f, -0.00645483f, -0.04812874f, -0.16884318f, -0.04432003f, 0.02214511f, -0.00303513f, 0.15180060f, 0.12180984f, 0.10515517f, -0.12520626f, 0.05210428f, -0.14397746f, -0.08985318f, -0.14887120f, 0.04459374f, 0.02233101f, -0.10781524f, 0.04458308f, 0.07242131f, -0.17242266f, 0.03875697f, -0.06617664f, -0.00739327f, 0.11907846f, -0.14117041f, 0.03963293f, -0.05145627f, 0.16043404f, -0.09816254f, -0.06166918f, 0.09147727f, 0.05191204f, -0.07659202f, -0.12773849f, -0.11194600f, -0.06330088f, -0.00140032f, 0.02184618f, 0.00471424f, -0.02791481f, 0.02053463f, 0.05871619f, -0.07701798f, -0.00917566f, -0.05211588f, -0.09474152f, 0.11578423f, 0.01224567f, 0.06527367f, -0.09906728f, -0.03788795f, -0.15702236f, -0.02944934f, -0.03098114f, 0.08181331f, 0.02201940f, -0.08894390f, -0.16238728f, 0.03411575f, 0.07558280f, -0.00408465f, -0.16446009f, -0.09915553f, 0.01727028f, -0.03873603f, -0.08369870f, 0.13820690f, -0.13175747f, 0.06423530f, -0.12258868f, -0.09033853f, -0.07801101f, -0.07302262f, -0.10266435f, -0.11131452f, 0.16761899f, -0.14681618f, 0.12816679f, 0.15542746f, 0.17015889f, -0.08472579f, -0.06841158f, 0.01088288f, 0.02233003f, 0.02833267f, 0.10068280f, 0.14068949f, 0.08394027f, 0.16973713f, 0.03160363f, -0.13673975f, -0.06310518f, 0.03924508f, 0.14573482f, 0.07384329f, -0.07354826f, -0.12287147f, -0.04288754f, -0.03813486f, 0.04315455f, 0.16905224f, 0.15869495f, 0.12721619f, 0.04136060f, -0.16078113f, -0.06781792f, 0.02833362f, -0.08068054f, 0.04119232f, -0.09736554f, 0.15517271f, -0.03239357f, -0.00416273f, 0.16529757f, -0.15180899f, 0.03193973f, 0.00432089f, -0.09116711f, -0.15058999f, 0.10494053f, 0.16189033f, -0.04904417f, -0.12365732f, 0.08554691f, -0.04493177f, -0.17250781f, 0.10661659f, -0.02693066f, -0.12388217f, -0.07077157f, -0.16686356f, -0.11851791f, 0.15846628f, 0.17260662f, -0.16114433f, -0.08383770f, -0.08055728f, 0.08032411f, 0.02447532f, 0.02130723f, -0.01643264f, -0.08909491f, -0.07363334f, 0.16324964f, -0.04760155f, 0.12841931f, -0.00867805f, -0.17007047f, 0.06135912f, 0.13529512f, -0.05180583f, 0.01113920f, 0.15329570f, -0.11077148f, -0.01037574f, -0.12180699f, -0.06041248f, -0.02107069f, -0.06107745f, 0.01257295f, 0.06221600f, 0.08232708f, 0.05324544f, 0.11036000f, -0.03796700f, 0.49691835f, -0.07180437f, 0.23530580f, -0.14295784f, -0.08226396f, -0.05915396f, -0.08319873f, -0.15583268f, 0.03818161f, 0.48916996f, 0.28840244f, -0.58528739f, 0.10793463f, -0.17633282f, 0.05320375f, 0.17778341f, -0.34337670f, 0.25425404f, 0.18102363f, -1.05439067f, -0.04378638f, -0.00428108f, 0.01536549f, -0.43318936f, -0.14940931f, -0.35679492f, 0.14648791f, -0.00700223f, -0.01905650f, -0.28625464f, -0.02079581f, 0.05088973f, -0.79663664f, -0.16624019f, -0.50902528f, 0.20628558f, -0.85115033f, 0.11168371f, 0.06480175f, 0.37664714f, 0.44871727f, 0.23767705f, 0.12882000f, 0.43075666f, 0.00398962f, 0.08649603f, -0.03926741f, -0.15603821f, 0.20651887f, 0.22426197f, 0.04287271f, -0.13927218f, -0.00027027f, 0.11675108f, -0.09477676f, 0.12716907f, 0.05741823f, -0.10389236f, 0.37884203f, -0.00077374f, 0.03340229f, -0.14433815f, 0.08944296f, -0.41876301f, -0.15310009f, 0.18817933f, -0.30508578f, 0.08797456f, -0.40318367f, -0.43141329f, -0.05081861f, -0.01522456f, 0.31567460f, 0.07121892f, -0.11174139f, -0.16720320f, 0.41046315f, -0.13705258f, 0.10867727f, 0.26446161f, -0.31062454f, 0.02654967f, 0.03419961f, -0.13048764f, -0.39804110f, 0.13251425f, -0.72098255f, -0.30725303f, 0.08196113f, -0.03452141f, -1.36933863f, -0.09838317f, 0.07456902f, 0.11320159f, 0.73077178f, -0.00480300f, 0.70316279f, -0.10285196f, -1.75801170f, -0.01001675f, -0.48704743f, -0.06021694f, 0.65764081f, -0.04844530f, 0.13020055f, -0.02069753f, -0.00487621f, 0.06763375f, -1.37217903f, -0.99738842f, 0.27410144f, 1.03306341f, 0.00502174f, 0.16611804f, -0.39129987f, -2.21999693f, -1.25695908f, -0.29808021f, 2.09177661f, 2.97270823f, -1.27516305f, 0.16620299f, 2.19216824f, 0.61519653f, -0.12612429f, 0.73637640f, -1.89044368f, 0.89199352f, 0.08637723f, 0.18018353f, 0.86976367f, 0.11449008f, 0.73978525f, -2.06611323f, 0.67161107f, 2.00468874f, 2.51841950f, -2.80852103f, 0.09892790f, -2.80449867f, -0.19499288f, -1.41769350f, -2.42037177f, -0.11560483f, 0.11454882f, 2.08138204f, 0.01510583f, 0.09232482f, -0.14549223f, -2.08680177f, 0.65970105f, 0.03358431f, -0.27901617f, 0.08311420f, -0.15401655f, 0.01403492f, 2.10083771f, 0.10729934f, -0.12228010f, -2.11932588f, 1.16461277f, 1.36927021f, -1.61436236f, -0.42495632f, 0.06799285f, -0.08512733f, 2.41890073f, -0.40099990f, -0.44494861f, 2.08263898f, -2.57065678f, 0.06670356f, -0.49969712f, -0.14663848f, -3.91701126f, -0.31121796f, 0.35560089f, -0.03872761f, 0.33249354f, 1.05512714f, -0.66311890f, -0.09613375f, -1.69828761f, 1.51023424f, 4.14948797f, -2.42245483f, 2.45070744f, -1.21949744f, -3.11702538f, -0.03367869f, 0.07129329f, 0.02116251f, 0.01560892f, -0.16406725f, 0.22745346f, -0.07294364f, 0.19133845f, -0.04377781f, -0.15193869f, 0.12293515f, 0.15804990f, -0.15422985f, 0.29652640f, -0.04309970f, -0.08324568f, -0.21385334f, 0.16265491f, -0.10788581f, -0.21883970f, 0.49924779f, 0.04093381f, -0.60655171f, -0.13859382f, -0.02494010f, -0.23357604f, -0.12366880f, -0.36556289f, 0.10191664f, -0.04415446f, -1.19876766f, 0.15828839f, -0.06894416f, -0.21220811f, -0.21115538f, -0.18931426f, -0.64060634f, 0.00105031f, -0.03977282f, 0.05705789f, 0.29510170f, -0.26427761f, 0.02576924f, -0.34305152f, -0.65469807f, -0.48096770f, 0.37976182f, -0.49091181f, 0.00927652f, 0.08815802f, -0.03918257f, 0.43843088f, 0.12231383f, -0.31011105f, 0.18345907f, -0.16253893f, -0.08621962f, 0.09901787f, 0.02230257f, 0.30585358f, 0.20312613f, -0.15167214f, 0.07978106f, 0.10657985f, -0.15567106f, -0.14066461f, -0.09093264f, 0.07699051f, -0.13008139f, 0.42346889f, -0.19206958f, -0.09800725f, -0.19599341f, -0.48896515f, -0.28138062f, 0.01372103f, -0.22127780f, -0.23177679f, 0.35850555f, -0.29574671f, -0.32284126f, -0.05672102f, -0.10426040f, 0.40784854f, 0.08293356f, 0.39075941f, -0.67971772f, 0.39320576f, 0.11230193f, 0.34676176f, -0.35431305f, 0.13483091f, -0.13861245f, 0.09342841f, -0.45839733f, -0.62805688f, 0.33414075f, -1.09392619f, -0.05739379f, 0.34032881f, -0.12169356f, -0.76905406f, 0.10313474f, -0.17977318f, 0.03039314f, -1.56655121f, 0.08709877f, -0.11744464f, -0.11509320f, -0.34665623f, -0.11284897f, -0.17854111f, -0.09662495f, -1.21074629f, -0.15666619f, 0.04079844f, 0.05652687f, -0.10702456f, -0.06245263f, -0.66372955f, -0.55709803f, -0.50513721f, -1.34676719f, 0.29894838f, -1.48788023f, -0.65475351f, -0.35626572f, 0.24379067f, -0.38622689f, -1.11139667f, 0.48189974f, 0.37877598f, 0.14042754f, -0.88886350f, 0.84667426f, 0.05336049f, -1.28553820f, -1.16330087f, -0.25879985f, -0.10455918f, 0.05211954f, -0.10675875f, -1.18951309f, -1.44577456f, 0.52911979f, -0.04503706f, -1.36628938f, -2.54584742f, 0.54165798f, -0.03934430f, 0.36883190f, 0.15699346f, -1.02748311f, 1.25400126f, 0.10341034f, -0.08835666f, -0.59254032f, -0.01431193f, -0.03497300f, -1.64091325f, 0.02988791f, 0.33679441f, -0.03421085f, -1.13764381f, 0.06349094f, -0.16357294f, 0.30568549f, -0.43946540f, 0.16636169f, -1.42200983f, 1.06726980f, -1.54452264f, 0.16300298f, 0.14102454f, 0.46320200f, 0.12588766f, 0.13201022f, -1.31490791f, -0.07570595f, -1.50383961f, -1.86098206f, 0.29533625f, -0.12331523f, 0.28627047f, -0.04960015f, 0.76588970f, -0.13314447f, -1.79237366f, -0.05096415f, 0.18307567f, -0.56179953f, 0.01487955f, -0.12341760f, 0.74139613f, -0.40296927f, -1.45883191f, 0.44005787f, 0.24767390f, -0.09721847f, -0.12315402f, -0.13492092f, -0.69194114f, -0.00487692f, -0.39014375f, -0.07607707f, -0.59936810f, -0.02065737f, -0.80659759f, -0.06588481f, 0.65863955f, 0.13199970f, -0.27192643f, -0.08340657f, -1.06484997f, 0.08958271f, 0.08884156f, 0.05260155f, 0.07672130f, -0.09012825f, 0.10034049f, 0.22659782f, -0.83090156f, 0.82080245f, -0.24834959f, -1.40498340f, 1.33094215f, -0.37470859f, 1.62448668f, -0.75583261f, 0.01372712f, 0.12813096f, 0.51488531f, -0.03339714f, -0.99496478f, 0.42998204f, 0.03796757f, 0.07228398f, 0.86136830f, -0.64126062f, -0.10845486f, 0.42609644f, 0.20782527f, -0.74133450f, 0.22466886f, 0.67670369f, -0.12756978f, -2.72554398f, -0.75144231f, 0.82690817f, 0.14861925f, 0.71267217f, -0.56404221f, -0.35791934f, 1.06594086f, -0.19844134f, 0.11989965f, 0.38991109f, 0.07415417f, 0.09668359f, 0.16495457f, -0.20689476f, 0.33719492f, -0.00695202f, 0.05527005f, 0.10002229f, 0.07693961f, -0.02226515f, -0.87743896f, 0.09642582f, -0.63626784f, 0.96731377f, -0.71332389f, 1.21420789f, 2.09492993f, 0.72441423f, 0.04510885f, 0.62866902f, 0.25073114f, 0.32719028f, -0.88133997f, -0.41594359f, -0.07918531f, -0.15987866f, -2.64516759f, -0.04923794f, 0.74994498f, 1.63365173f, -0.45794362f, 0.00050992f, -1.78196931f, 0.80818087f, -1.93864584f, 0.16061741f, -0.68257141f, 0.60620612f, -0.34868380f, 0.89878505f, 0.49724573f, -0.36607826f, -0.02199070f, 0.02723148f, 0.11246091f, -0.16936973f, -0.00316541f, -0.12836279f, 0.08662999f, -0.00516382f, -0.00025137f, 0.14268607f, 0.08175501f, 0.10168549f, -0.07023093f, -0.14873001f, 0.04128549f, -0.01394732f, -0.05325592f, 0.00236477f, -0.05280542f, -0.02586243f, 0.06163862f, -0.10858205f, 0.01562074f, 0.07383499f, 0.09874663f, -0.04539511f, -0.16764681f, 0.17288971f, -0.15587781f, 0.16609377f, 0.08806145f, 0.02947725f, 0.14626977f, 0.12511921f, -0.13073546f, -0.16234945f, 0.00363795f, -0.16884451f, 0.16508779f, -0.05523054f, 0.06484433f, -0.00733590f, 0.04114722f, -0.13115625f, -0.10767450f, 0.04456775f, 0.15119439f, -0.16506553f, -0.12716110f, -0.04478002f, -0.16721185f, 0.06065595f, 0.16302034f, -0.04275501f, -0.01209705f, 0.14279541f, 0.05630872f, -0.15771921f, -0.06821663f, -0.07413421f, -0.12117931f, 0.17145395f, -0.04930074f, 0.10755083f, 0.08264774f, -0.17294951f, -0.04936276f, 0.08090428f, 0.03806490f, 0.07883883f, 0.08925697f, 0.05506387f, -0.12544693f, -0.06776036f, -0.08645966f, 0.16608498f, 0.14448068f, 0.07384448f, -0.13338348f, 0.10056090f, 0.01509905f, -0.02841035f, -0.11622730f, -0.00231683f, 0.00408803f, -0.09620614f, -0.12501700f, -0.12523942f, 0.15977579f, 0.07703483f, -0.16864236f, -0.07485981f, -0.09496463f, -0.00397475f, 0.05665621f, 0.02675630f, -0.07713191f, 0.07953984f, -0.09077419f, 0.17143363f, -0.11132935f, -0.02376215f, 0.03546862f, 0.13603821f, 0.13763222f, 0.09508932f, 0.16192460f, -0.07806011f, -0.06584875f, 0.10695580f, 0.02082609f, -0.12842625f, 0.07391500f, 0.11713400f, -0.01356630f, -0.16374387f, -0.14344859f, -0.15003057f, 0.12753230f, -0.02044196f, 0.03819193f, 0.08740693f, -0.14121009f, 0.01455428f, -0.08013524f, 0.05861762f, -0.08651830f, 0.11074618f, -0.02743673f, -0.00755109f, -0.07343259f, 0.07212725f, 0.04521708f, 0.11756110f, 0.02966890f, 0.08414459f, 0.09807071f, 0.13356972f, 0.06595252f, 0.12125418f, -0.13264073f, -0.15279214f, 0.07846558f, 0.11730886f, 0.08035043f, 0.01723492f, -0.07296526f, 0.14607596f, -0.15830560f, -0.07752104f, -0.13609654f, 0.13911891f, -0.14308271f, -0.10600303f, 0.13690233f, 0.15419659f, -0.00130485f, 0.06994860f, 0.08165845f, 0.16266900f, -0.05062528f, -0.06792673f, 0.11729553f, 0.12959740f, -0.06590438f, -0.07194229f, 0.11023712f, 0.16916859f, 0.07063451f, 0.04357465f, 0.08533075f, -0.04306382f, 0.04681236f, -0.02351668f, -0.07042105f, -0.12270178f, -0.13919917f, 0.07160586f, 0.07572098f, 0.02161185f, 0.15448037f, 0.12330419f, 0.17198509f, -0.12048794f, 0.11145955f, 0.14008760f, 0.16730571f, -0.09802341f, -0.04684205f, 0.14605626f, 0.14051121f, 0.15362924f, 0.12318811f, 0.13737321f, 0.06978272f, 0.07003820f, -0.03093547f, 0.00289737f, 0.13661158f, 0.16091663f, -0.14059144f, 0.10857907f, -0.03036791f, 0.00992207f, -0.01776363f, -0.06400942f, -0.07523440f, -0.09138813f, -0.15624799f, 0.16288280f, 0.02691050f, -0.14742962f, -0.02335666f, 0.08719596f, 0.12207863f, -0.01597100f, 0.13577229f, 0.12975800f, -0.16694367f, 0.08794764f, 0.15158537f, -0.06872489f, -0.02826965f, 0.13091344f, -0.05267122f, -0.12262799f, -0.15978716f, 0.03265847f, -0.07263494f, 0.04933852f, 0.03210442f, -0.15506677f, -0.00755957f, -0.05619858f, 0.11294124f, 0.02642280f, 0.06526805f, 0.00991203f, -0.04542637f, 0.04447116f, -0.11397769f, -0.08233368f, 0.06380266f, 0.02707577f, 0.09640965f, 0.05479276f, -0.04247449f, 0.14086974f, 0.13011736f, -0.13444459f, 0.04841548f, -0.03441989f, -0.02929716f, 0.02960394f, 0.02319875f, 0.01064420f, 0.04870802f, -0.01100591f, -0.05417317f, -0.10132543f, -0.14181226f, 0.14037520f, 0.02946742f, 0.02487443f, -0.01679505f, -0.05892593f, -0.16131070f, 0.04179242f, 0.02111751f, 0.03898318f, -0.12609184f, 0.01118347f, -0.06083604f, -0.09441429f, -0.05779646f, -0.14533244f, 0.11434990f, -0.01071274f, 0.13157499f, 0.05176742f, 0.15124220f, -0.03033285f, -0.12780060f, -0.02800529f, 0.02442552f, 0.03283650f, -0.12130423f, -0.17183357f, -0.04274771f, 0.10829487f, 0.06911828f, -0.02118106f, -0.13919038f, 0.16647378f, -0.02004652f, -0.14794527f, -0.07938131f, 0.12543371f, -0.09722885f, -0.14317372f, 0.01287335f, 0.08940631f, 0.51451993f, -0.13149458f, -0.33978546f, -0.00643274f, 0.16477984f, 0.03437243f, 0.34225291f, 0.02083709f, 0.05185868f, -0.00540213f, 0.30868852f, -0.14917335f, 0.47509849f, 0.00494049f, -0.10524469f, 0.04688692f, -0.15526189f, -0.03730342f, 0.45358750f, 0.31350994f, 0.54627013f, -0.57556534f, 0.52501392f, 0.73115861f, -0.21662357f, 0.10029265f, 0.36218038f, 0.55912137f, 0.12628080f, -0.38765296f, 0.02537966f, -0.10091718f, 0.86143982f, 0.15685211f, -0.15250921f, -0.74362427f, 0.51411808f, 0.74331963f, -0.12128246f, 0.24128407f, 0.02733005f, 0.23627922f, 0.04533726f, 0.00539497f, 0.16185859f, 0.53266680f, 0.63582867f, -0.41212800f, 0.12387964f, 0.13369124f, 0.10337565f, 0.73829556f, -0.92839217f, -0.27415290f, 0.15648323f, -0.39671066f, -0.15084234f, 0.01145780f, 0.11061526f, 0.21535796f, -0.04828966f, -0.06172550f, 0.47527429f, -0.16405359f, 0.15175937f, 0.13091099f, 0.27544940f, 0.16214502f, 0.48849723f, -0.91345912f, 0.66382945f, 0.12609707f, -0.68671185f, 0.19172774f, 0.08794692f, -0.09743751f, 0.02821102f, -0.04361606f, 0.21631280f, -0.09998718f, -0.21603666f, -0.00590075f, -0.02095518f, -0.10157612f, -0.53570819f, -0.89928347f, 0.47920784f, 0.15926191f, -0.08418775f, -0.00071399f, 0.36365798f, -0.01013763f, -0.29936907f, 0.01766341f, 0.28015864f, -0.62015545f, -0.73288471f, 0.23192695f, -0.00417770f, 0.01589695f, 0.24024925f, 0.11970737f, -0.06017451f, -0.14248054f, 0.08596300f, -0.08307074f, 0.32457590f, 0.09749827f, 0.33454481f, 0.09191224f, -0.11864328f, -0.08726677f, 0.16738771f, -0.01468135f, 0.13329619f, -0.14304279f, 0.06515040f, -0.12279849f, 0.20012166f, 0.27289945f, 0.29028460f, 0.04420383f, 0.01458216f, 0.20860845f, -0.09311590f, -0.15656544f, 0.14687578f, 0.23202237f, 0.07185541f, -0.15863882f, 0.19169995f, 0.11482155f, 0.15209864f, 0.09615391f, 0.07419018f, -0.06026877f, 0.21426769f, 0.14160439f, -0.13962576f, 0.27549621f, 0.09807878f, 0.12215853f, 0.31020185f, 0.06976455f, 0.47447467f, -0.02243267f, 0.34037316f, 0.18177298f, 0.09972127f, 0.05091671f, -0.14821878f, 0.12500712f, 0.07101522f, 0.14203513f, -0.06283944f, -0.23592524f, -0.00243242f, -0.07405269f, 0.14855273f, 0.04486250f, -0.04385665f, -0.02481703f, 0.28291577f, -0.16832785f, -0.15322405f, -0.13679561f, 0.19030994f, -0.05891479f, 0.14690335f, -0.00864071f, 0.13620888f, -0.06365675f, -0.12713538f, 0.41110051f, -0.14580482f, -0.54441464f, -0.06859723f, 0.30567330f, 0.19731410f, 0.12314286f, 0.16490635f, -0.04947138f, 0.22508001f, 0.02376426f, 0.14203772f, 0.01122046f, 0.01375359f, 0.12209240f, -0.06268569f, -0.11794367f, 0.29979876f, 0.11260724f, 0.27550197f, 0.00847484f, -0.36848825f, 0.20779189f, -0.08744694f, 0.21502882f, 0.35091305f, 0.10660208f, 0.01721312f, 0.12539592f, -0.13506857f, -0.08831266f, 0.03634723f, -0.14990139f, -0.08543371f, -0.01043458f, -0.04794729f, -0.09760109f, -0.13003187f, 0.10014224f, -0.12362288f, -0.00950544f, 0.11438334f, -0.08619182f, -0.11963107f, 0.08077347f, -0.00025615f, -0.12732843f, 0.14171752f, 0.13536271f, 0.05647835f, -0.10770927f, 0.11428753f, -0.02185310f, 0.05435859f, -0.14897093f, -0.12046878f, 0.01758176f, 0.04756133f, -0.08091052f, 0.16995439f, -0.14978944f, -0.00397670f, -0.12892498f, -0.05926248f, 0.09682062f, 0.16387531f, -0.15481174f, -0.01260449f, 0.12159070f, -0.16653815f, -0.11385752f, -0.06005494f, 0.08527064f, 0.11366203f, 0.12589940f, 0.10630497f, 0.12348270f, 0.02573276f, -0.12643670f, -0.11833039f, 0.07613604f, -0.07084376f, 0.16824728f, 0.07000005f, -0.05020733f, -0.01395150f, 0.01596712f, -0.01697555f, 0.16479138f, -0.04009923f, 0.01345384f, -0.11810355f, -0.13311836f, 0.14535242f, 0.00691478f, -0.14183465f, -0.06651233f, 0.12509298f, -0.06004705f, 0.06762487f, 0.16041055f, 0.12885329f, 0.00398743f, 0.07994694f, 0.11310086f, -0.03232923f, 0.15093637f, 0.06083798f, -0.16165940f, 0.01499990f, -0.00389832f, 0.15008762f, -0.16436446f, 0.03564112f, -0.14853019f, -0.00833063f, 0.04203337f, 0.15563166f, 0.09515059f, 0.14842144f, 0.09534642f, -0.04104193f, 0.13719928f, 0.10239118f, -0.14418790f, -0.06028463f, 0.10195592f, 0.16053158f, 0.07221191f, 0.04586609f, -0.14714348f, -0.00761969f, 0.13919231f, 0.08785197f, 0.10579941f, 0.16965088f, -0.15713406f, 0.10490504f, -0.10066925f, -0.10878518f, 0.08729658f, -0.11721396f, -0.15871571f, 0.11177689f, -0.08790747f, 0.02390544f, 0.01013568f, 0.02671923f, -0.13638589f, 0.04352599f, 0.03284130f, -0.15650587f, -0.15569215f, 0.10530916f, -0.11143494f, 0.14155892f, 0.03010130f, -0.15563908f, -0.17197113f, 0.15962008f, 0.15271223f, 0.05685543f, -0.02313963f, -0.04774164f, 0.15502778f, -0.09498916f, 0.06886584f, 0.08777800f, -0.12707603f, 0.04321612f, 0.14815694f, 0.17277995f, 0.11956754f, -0.03081894f, 0.03616165f, -0.06286723f, -0.01214652f, 0.08499479f, -0.04310334f, -0.11977552f, -0.09654389f, 0.12216088f, 0.12223282f, -0.13608381f, -0.09163012f, -0.10714530f, 0.07725009f, -0.02837925f, 0.05830963f, -0.08335962f, 0.13380510f, 0.04118732f, -0.10353345f, -0.09056383f, -0.13675264f, 0.05978078f, 0.11343396f, -0.07085544f, 0.04336569f, 0.13277131f, -0.03775556f, 0.13699386f, -0.13940276f, 0.11942169f, 0.10239074f, 0.07517539f, 0.00834888f, -0.01204865f, -0.00840384f, 0.13131905f, -0.13200030f, -0.06408656f, 0.11016512f, 0.14174494f, -0.13468878f, -0.02597632f, 0.08048350f, 0.08246821f, 0.00808264f, -0.15243441f, 0.05188203f, -0.00647791f, -0.03164501f, -0.02431670f, -0.06847361f, 0.10557035f, 0.09845430f, 0.12794906f, -0.02330160f, 0.10330810f, 0.10763532f, -0.04516798f, -0.02174297f, -0.08385834f, 0.06009635f, -0.13075757f, 0.13958767f, 0.12180611f, -0.12070507f, -0.08624540f, 0.03695555f, 0.03758261f, -0.17005037f, -0.16418919f, -0.06827316f, -0.16891557f, -0.08981515f, 0.16887085f, 0.16279700f, -0.01752317f, 0.08885950f, 0.17230937f, -0.07658410f, -0.03517720f, -0.01748559f, 0.06159451f, 0.00869621f, 0.03847993f, -0.00133404f, 0.00446399f, -0.10556489f, -0.07588620f, 0.09281767f, -0.15743750f, 0.05234770f, 0.05270892f, 0.09142634f, 0.11233178f, 0.03866451f, -0.11931165f, 0.07971457f, -0.02861978f, -0.09156367f, 0.02342209f, 0.09150258f, -0.04059519f, -0.11362595f, -0.06027843f, -0.10343591f, -0.01524528f, 0.04189743f, -0.02225767f, -0.13477401f, -0.10275445f, 0.07486595f, -0.05576861f, 0.03408956f, -0.06651291f, 0.08587328f, 0.10066295f, -0.14668623f, 0.17010534f, -0.06370970f, -0.14458111f, -0.05584220f, -0.17212500f, -0.16159257f, 0.01943511f, -0.14055423f, -0.08882886f, 0.04494846f, -0.14623865f, -0.04225310f, -0.10425710f, -0.07374212f, -0.16198303f, -0.01322755f, 0.12960161f, 0.10999326f, 0.13038190f, -0.02390689f, -0.16259120f, -0.10056297f, 0.08392634f, -0.14357570f, 0.10441378f, -0.11078210f, 0.14502910f, 0.03363003f, -0.10104707f, -0.16548674f, 0.10888492f, 0.05869907f, -0.00173464f, -0.15469791f, 0.01439345f, -0.03988354f, 0.03722332f, -0.03345591f, -0.12267195f, 0.11360171f, 0.15198463f, -0.00253680f, -0.16455908f, -0.06156084f, 0.42947406f, 0.04716024f, -0.00886774f, -0.07097210f, 0.08829351f, 0.01923890f, 0.02846148f, -0.05551103f, -0.02004297f, 0.12422270f, -0.09463164f, 0.21827182f, -0.14296845f, 0.10037189f, -0.29148597f, -0.07200872f, 0.05905956f, 0.04133169f, 0.28732219f, -0.17612419f, -0.04674557f, -0.15125346f, 0.36574432f, -0.09858093f, -0.29060170f, -0.03233350f, -0.16612436f, -0.13477515f, 0.23597135f, -0.04781248f, -0.14352952f, 0.17217422f, 0.02025197f, 0.03245503f, 0.42027059f, 0.15436085f, 0.06871556f, -0.23739757f, -0.03690344f, 0.14236712f, -0.12266252f, 0.03478975f, -0.09548356f, 0.13296211f, -0.11729062f, -0.02198972f, 0.01971993f, -0.06581394f, -0.00666175f, -0.05685662f, 0.22397694f, 0.03671376f, 0.08480643f, 0.13788924f, -0.03092925f, -0.15497276f, -0.00470821f, -0.16295041f, 0.00479494f, 0.03186632f, 0.00346238f, 0.43890259f, -0.77253026f, -0.05984363f, -0.02227281f, 0.29247400f, 0.07941398f, -0.01556283f, 0.12463526f, -0.04184774f, -0.22462067f, 0.07018954f, 0.20067139f, -0.08847904f, -0.45716697f, 0.10446732f, 0.61936074f, 0.35241023f, -0.07296024f, -0.02138807f, -0.34131488f, 0.18306749f, -0.33452341f, 0.14586318f, 0.04545405f, -0.07317074f, -1.20028019f, 0.29134697f, -0.17835452f, 0.11371344f, 0.20600449f, -0.05937589f, 0.34590754f, -0.15120018f, -0.17144202f, 0.09798840f, -0.00169118f, 0.05166048f, -0.02644128f, 0.16144337f, 0.75459850f, -0.06913120f, 0.19403380f, 0.12836808f, 0.03851725f, -0.13713528f, -0.03770062f, 0.22019978f, -0.01729392f, 0.12963998f, 0.43361855f, 0.24070778f, -0.28625923f, -0.14775142f, 0.01988915f, 0.36350295f, 0.06884216f, 0.04933144f, 0.62757462f, -0.13803184f, -0.19985636f, -0.18024932f, 0.07961753f, 0.13116777f, 0.27115235f, -0.04570506f, 0.12324034f, -0.51074201f, 0.58737338f, 0.12963428f, 0.05859949f, -0.14195089f, -0.01573366f, 0.02320937f, 0.33107415f, 0.37128389f, 0.25296000f, 0.43368271f, 0.27254736f, 0.07148573f, -0.05449738f, 0.28066298f, -0.14946073f, 0.41604856f, -0.06737877f, 0.07544214f, 0.03243202f, -0.00620235f, 0.02059173f, 0.16209504f, 0.46582520f, 0.32755277f, 0.14260022f, 0.01007681f, 0.29210865f, 0.07861900f, 0.02467665f, -0.08608130f, -0.16747481f, 0.02206633f, 0.21768878f, -0.48914650f, 0.09574188f, 0.38576925f, -0.15142830f, 0.40312067f, -0.08247536f, 0.18105264f, 0.10769240f, 0.08819148f, 0.08866923f, -0.23129185f, -0.07357068f, 0.03050773f, -0.29358408f, -0.12416283f, 0.23431256f, 0.09215634f, 0.30210778f, -0.05265614f, -0.34165102f, 0.17132384f, -0.05456259f, -0.15767242f, -0.21037517f, 0.17547420f, -0.32745814f, 0.10699718f, -0.20885596f, 0.29307139f, 0.25464562f, 0.04223803f, 0.06735170f, 0.00506236f, 0.12107310f, 0.11702600f, -0.07888944f, 0.16768789f, -0.08645297f, 0.01673286f, -0.03622143f, 0.02744429f, 0.12981167f, -0.01577857f, 0.08957404f, -0.12601919f, 0.05081528f, 0.01589713f, -0.03893457f, -0.00072452f, 0.05689709f, -0.04149748f, 0.12890625f, -0.01096614f, -0.04515052f, -0.00206307f, -0.13079476f, -0.09759010f, -0.07909971f, 0.01280275f, -0.04488313f, 0.07427193f, -0.07967707f, -0.04109329f, -0.15695955f, -0.11041936f, 0.14875093f, 0.01005681f, -0.14030093f, 0.15775278f, 0.10199893f, 0.03274165f, 0.12975746f, 0.01764627f, -0.07112138f, 0.12746519f, 0.04356626f, 0.05955724f, -0.14735790f, 0.12657008f, 0.05748294f, -0.08457919f, -0.02456634f, -0.02080011f, -0.10058447f, 0.08005926f, 0.13607574f, 0.01411679f, -0.10832147f, -0.01626052f, -0.08675227f, 0.00858063f, -0.04973153f, -0.02329469f, 0.16648835f, 0.08098572f, -0.05895578f, 0.17156959f, 0.06864333f, -0.10055400f, 0.12903959f, 0.09072617f, 0.04694694f, -0.03672230f, -0.04798725f, -0.07025149f, -0.07663769f, -0.12716940f, 0.01464818f, -0.09244458f, -0.15899205f, 0.09997240f, -0.15685268f, -0.07663389f, 0.14308110f, 0.10890415f, -0.06243590f, -0.12816396f, -0.04598939f, 0.09614056f, -0.01639973f, -0.02988327f, -0.11615577f, 0.15411666f, 0.10552150f, -0.01964694f, 0.11845046f, 0.16291928f, 0.00803412f, 0.09136438f, 0.10704628f, 0.09133539f, 0.08569401f, -0.11749388f, 0.22040474f, -0.13841048f, 0.16131951f, 0.11660920f, 0.18292744f, -0.01637021f, 0.28253108f, 0.16544673f, -0.23224093f, -0.08867341f, 0.15632996f, -0.12603626f, -0.15007627f, 0.09016409f, 0.02607161f, -0.15681671f, -0.13461308f, -0.16349968f, 0.26880592f, 0.24179100f, 0.07289575f, -0.01977586f, -0.13684678f, -0.09166389f, -0.19778931f, 0.15327673f, 0.00498771f, 0.10311757f, -0.03498702f, -0.04093358f, 0.28925073f, -0.01458016f, -0.05990859f, 0.26066500f, -0.20564367f, 0.19060668f, -0.03892653f, -0.05736800f, 0.12157343f, 0.21815252f, 0.12530643f, 0.32819319f, 0.68449074f, -0.00667934f, 0.50158262f, -0.14620732f, 0.05669860f, -0.10388057f, 0.04013162f, 0.04295132f, 0.34789437f, 0.18881178f, 0.00598314f, -0.15258387f, -0.09348463f, 0.01323357f, -0.21456130f, -0.02204337f, 0.00995078f, -0.03351849f, -0.00064029f, -0.01450604f, -0.09715632f, 0.10126301f, 0.48865470f, 0.02101873f, 0.07068355f, 0.01988281f, 0.29286796f, -0.06457663f, 0.00981411f, 0.43638709f, 0.02455650f, -0.44349408f, 0.43851504f, 0.13467023f, 0.43102941f, 0.32178363f, -0.00498190f, -0.06984095f, 0.28256899f, -0.04432932f, 0.00527245f, 0.29493603f, -0.10497376f, -0.11966569f, 0.18186374f, -0.16876413f, 0.53816164f, -0.00328685f, 0.48681098f, 0.47608352f, -0.01023313f, -0.16673006f, 0.23315945f, -0.06670778f, 0.02015642f, 0.13992867f, -0.07209497f, -0.17418218f, 0.18517889f, -0.12636942f, 0.00167188f, 0.03612493f, -0.25892040f, 0.02827024f, 0.36560595f, -0.16312985f, -0.15549485f, -0.14070827f, -0.02215481f, 0.03338850f, 0.11025991f, -0.33066276f, 0.09368582f, 0.00100814f, 0.12035198f, -0.00443167f, -0.25148192f, 0.08331554f, 0.09677301f, -0.13450624f, -0.27078161f, 0.19750102f, 0.26829579f, -0.12708794f, -0.59403366f, 0.16753355f, 0.32053623f, 0.11701044f, -0.12229989f, 0.00610979f, -0.07803714f, 0.14354266f, 0.34624648f, -0.12657994f, -0.05684815f, -0.16229656f, -0.02432768f, -0.01650778f, 0.41115662f, 0.54456502f, 0.55638540f, -0.19499631f, 0.17748545f, 0.23683551f, -0.08409151f, 0.13596894f, 0.06633385f, -0.06097974f, 0.40154138f, -0.09267456f, 0.13201866f, -0.16988024f, -0.05842842f, -0.01834561f, 0.06648225f, 0.00213286f, -0.04327096f, -0.09920166f, -0.26083434f, 0.10681495f, 0.04718271f, 0.30360392f, -0.16699958f, 0.11801491f, -0.21902010f, 0.38951525f, -0.75747651f, -0.40648332f, 0.24656019f, 0.62574649f, -0.07688572f, -0.08392487f, 0.21524531f, -0.01934261f, 0.12555923f, 0.04884990f, 0.23844890f, 0.05899391f, -0.33564892f, -0.01217451f, 0.35139233f, 0.50033891f, -0.15216959f, -0.14296454f, -0.10420070f, -0.19070019f, 0.06658225f, -0.15262412f, 0.16617696f, 0.37891614f, -0.70907509f, 0.32654032f, 0.15947971f, 0.13932055f, 0.13816056f, -0.01795824f, 0.14680496f, -0.14272997f, 0.15187484f, -0.08105803f, -0.14427015f, 0.09390053f, 0.01228705f, -0.15334220f, -0.00052640f, -0.02961534f, -0.02296324f, 0.12627664f, -0.15952113f, 0.10217050f, -0.12919453f, -0.10955931f, 0.14853022f, 0.06809191f, -0.11066973f, 0.01653042f, -0.00073811f, -0.05905134f, -0.12964369f, -0.13897330f, 0.00294089f, -0.04845873f, 0.10952812f, -0.03463326f, 0.04956317f, 0.09409645f, -0.06712466f, 0.10793236f, 0.04672737f, 0.11335897f, -0.13609236f, 0.06368355f, -0.08390711f, -0.01662086f, 0.13523591f, 0.04414774f, 0.15854582f, -0.05566414f, 0.15744215f, 0.04192737f, 0.14961758f, -0.13904163f, -0.00650570f, -0.12581557f, 0.16818562f, 0.05131586f, -0.14019349f, 0.01000349f, -0.10950772f, 0.06707084f, -0.13182808f, 0.04840277f, -0.08651511f, -0.03450784f, 0.01784919f, -0.12668417f, 0.06939028f, 0.15263391f, 0.06162821f, 0.04729551f, 0.07457049f, 0.17288134f, -0.02397734f, -0.02174975f, -0.16612276f, -0.04024427f, 0.10680899f, 0.09487647f, 0.11782166f, 0.06092672f, -0.00278103f, 0.13302585f, -0.11203764f, 0.02148670f, 0.01322602f, 0.06255046f, 0.06429948f, 0.07690373f, 0.01423693f, -0.07931181f, -0.13812181f, 0.15621403f, -0.17156595f, 0.07836533f, -0.12773816f, 0.15399748f, 0.12746108f, 0.08553928f, -0.07553329f, -0.07488388f, 0.08989725f, 0.03324689f, -0.05737261f, -0.03432797f, 0.05347015f, 0.10875341f, -0.51029247f, 0.06824467f, 0.28188929f, -0.16599888f, -0.48351380f, -0.15169257f, -0.43112519f, 0.00922805f, -0.04614389f, 0.10259774f, -0.61958426f, -0.06041760f, -0.82033342f, 0.09348804f, -0.17378065f, 0.09704231f, -0.10242955f, -0.03629366f, -0.94347996f, -0.62620443f, -0.38514325f, -0.45771036f, -0.08925992f, -0.98412043f, 0.08543111f, -0.30196643f, -0.45902699f, -0.30096063f, -0.63141990f, -0.28427044f, 0.32269901f, -0.08657113f, -1.37569034f, 0.50010711f, 0.10490268f, 0.29077935f, -0.39118096f, -0.52435696f, -0.02795246f, -0.03233045f, -0.05042725f, -0.71847039f, 0.46560264f, 0.26888663f, 0.04501830f, -0.57867676f, -0.74934161f, 0.53299135f, 0.15394582f, 0.33171231f, 0.33700401f, -0.35282928f, 0.87836069f, -0.12757400f, 0.03997273f, -0.57442081f, 0.11474623f, 0.08280772f, -0.90106267f, 0.02783001f, 0.33244023f, -0.07099576f, -0.67740786f, 0.06015178f, 0.11470371f, 0.22887823f, -0.71262699f, -0.12001162f, -0.62573659f, 1.27658403f, -1.60585332f, -0.18191847f, 0.30803391f, 0.08336788f, 0.04675505f, -0.06990895f, -0.51822168f, -0.14766580f, -0.57546061f, -1.05948055f, 0.47624412f, 0.09687322f, -0.09995396f, 0.03560891f, 1.17925990f, 0.61950588f, -0.59754330f, -0.07604664f, 0.23165481f, -0.10420258f, 0.28229147f, -0.13868344f, 0.71088237f, 0.14433347f, -1.68063760f, 0.75205326f, 0.06428175f, 0.05069545f, 0.07380165f, 0.05924395f, 0.99473625f, 0.04974116f, -0.50311279f, -0.08033767f, 0.79569268f, -0.00870384f, 1.42697954f, 0.04033298f, -0.74968284f, -0.16718240f, -0.55946952f, 0.03184269f, 0.61800790f, 0.15147248f, -0.11851047f, 0.29665077f, -0.14087754f, 0.06144813f, 0.87095004f, 0.24316454f, 0.73319298f, -1.13254309f, 0.74374110f, 0.23582219f, -1.45068610f, -0.51498580f, 0.30322036f, 0.65659690f, -1.21495581f, -0.63542104f, -0.39954144f, 0.14727658f, 0.80413693f, 0.33683571f, -0.11330774f, -1.17492557f, 0.46683797f, 0.49080586f, -0.02308965f, 1.76427972f, -0.01139612f, 0.29361433f, 0.86808890f, -0.71849054f, 0.41413376f, 0.51024330f, 0.88871270f, -0.04038978f, 0.07521272f, -0.35081437f, -0.68582523f, 0.03280019f, -1.45011520f, -0.17448851f, -0.12270360f, -1.86393273f, 0.00471935f, -0.10124226f, -0.07585833f, -0.23879363f, -0.56284279f, -0.06497441f, 1.10043192f, 0.10867327f, -0.06972094f, -0.27638561f, 0.43770874f, -0.10046545f, 0.78266686f, -2.18608689f, 0.81176269f, 0.80671376f, -1.86155474f, 0.33562726f, 0.13707396f, 0.18185081f, -0.82174069f, 0.30372617f, 0.47975796f, -0.55667585f, -0.48542270f, -0.13705479f, 0.83039623f, -0.16639395f, 0.36861843f, -1.31487918f, 0.65850723f, 0.04063240f, -0.27355579f, -1.24385297f, 1.11580491f, 0.06539302f, -0.04738933f, -0.95064229f, -0.00970450f, -0.24223699f, -1.16708207f, 0.83814377f, 0.73996156f, 0.03862084f, -0.05170041f, 0.00209719f, 0.11381003f, 0.08079126f, 0.08243895f, -0.11332647f, 0.03946477f, -0.11803397f, -0.11514528f, 0.05689420f, 0.04334401f, -0.02568489f, -0.03571491f, 0.04386882f, 0.15742856f, 0.16451740f, 0.05711050f, -0.14413798f, -0.00034791f, -0.17263471f, 0.11410362f, 0.11741990f, -0.17142616f, 0.05604166f, -0.11795951f, 0.07888779f, 0.05291127f, -0.04581298f, -0.04080233f, -0.03032760f, 0.07289556f, -0.05540356f, -0.10598565f, 0.04318953f, 0.12520209f, -0.01314276f, 0.05402161f, -0.14838949f, 0.16950738f, 0.04590283f, 0.14412805f, -0.09013626f, 0.16299963f, -0.16813959f, 0.16688794f, 0.05448486f, 0.06735475f, 0.14568019f, 0.01567669f, -0.07697792f, -0.15129507f, -0.03700377f, -0.09723555f, 0.08757016f, -0.15964383f, -0.03533193f, 0.00169104f, -0.05184098f, 0.13908985f, 0.02602646f, -0.02420603f, -0.12542947f, 0.07296245f, -0.13695626f, 0.02570984f, 0.04832241f, -0.17033538f, 0.08939555f, 0.02458660f, 0.15873641f, -0.06822307f, -0.15536323f, 0.16828939f, -0.10725841f, -0.09477356f, -0.11369676f, -0.16683544f, 0.08537546f, -0.16381907f, 0.04836328f, 0.10861009f, 0.15006766f, 0.15832642f, -0.12179572f, -0.02427933f, -0.02970785f, -0.16045325f, 0.00327802f, 0.15061980f, -0.04833711f, -0.07852171f, 0.12867028f, -0.03357820f, 0.13947374f, 0.16052291f, -0.05405758f, 0.09240201f, -0.01934227f, 0.15403509f, -0.17129546f, -0.42982739f, -0.08318998f, 0.27224600f, 0.16566983f, -0.10996590f, 0.00221014f, -0.82201165f, -0.11322911f, 0.14167550f, -0.05372478f, 0.14046544f, -0.02565794f, -0.46824250f, -0.08799183f, -0.05467620f, 0.06890764f, 0.06525633f, 0.11031803f, -0.30271423f, 0.11275782f, -0.23994255f, 0.46721545f, -0.66747481f, -0.50802118f, 1.01873386f, 0.24392484f, -0.24925265f, -0.36207503f, 0.50691861f, -0.03624019f, 0.52084154f, -0.18038136f, -0.90001488f, -0.38162750f, -0.13456371f, 0.55170846f, -0.20543142f, -0.07447901f, -0.02639356f, -0.16939723f, -0.08678199f, 0.04529184f, -1.42805386f, 0.06737988f, -0.90785348f, -0.77178383f, -1.77264130f, 0.24949138f, 0.06486868f, 0.19899192f, 0.30416790f, -0.47343111f, 0.72544152f, 0.26510593f, -0.04175097f, 0.69445127f, 0.08255524f, -0.14953844f, -0.11845315f, 0.00724245f, 0.22602616f, -0.08701603f, -0.43034160f, -0.13152397f, -0.11721854f, 0.06639913f, -0.38703102f, -0.01898690f, -0.16986114f, 1.37546611f, -0.80956286f, -0.20011057f, 0.97785074f, -0.02398031f, 0.06057414f, 0.17347063f, 0.17869046f, 0.13452512f, -0.72943300f, 0.23749878f, 0.44903639f, -0.19029897f, -0.48282158f, -0.09606337f, 0.14007336f, 0.61875504f, -0.11635327f, 0.13386492f, 0.47140992f, 0.56791133f, -0.97853506f, 0.14443806f, 0.03448084f, 0.42384359f, -0.29364350f, 0.71263289f, 0.56507170f, -0.21192777f, -0.12768207f, -0.13270012f, 0.46302995f, 0.05551796f, 1.01761568f, -0.02504082f, 1.25218773f, -0.03682182f, 1.41853261f, -0.01598529f, -1.36628675f, 0.05513915f, -1.60146415f, -0.10652757f, 1.34940445f, 0.14207631f, -0.03131794f, 0.53184539f, 0.07936126f, -0.13619697f, -1.41341519f, -0.60436285f, 0.94183493f, 0.75192475f, -1.60704243f, -4.37049627f, 0.53145808f, -0.71939665f, -0.88652736f, 0.62957227f, -1.40087998f, 0.33113965f, -1.68033004f, 0.03430402f, -1.94397771f, 0.06576973f, -0.09916542f, 0.47347239f, -1.92175221f, 0.17201847f, -0.06938239f, 0.38344663f, -0.96048450f, 0.85312027f, 0.21510428f, -2.02108550f, 1.14102364f, -3.85195017f, -0.01879358f, -0.50396937f, 0.11370811f, -2.48418665f, -1.68269980f, -2.85057282f, -1.45919001f, 0.18557012f, -0.05370150f, 1.04223597f, 0.13338323f, 0.12599012f, -0.42546105f, -0.96052581f, -1.15192127f, 0.01724802f, 0.30365372f, 0.04251337f, 0.07092252f, -0.14501828f, 1.48672295f, -0.17030536f, 0.22198902f, -0.17089336f, -6.04585695f, -0.66509843f, -0.65609413f, 1.12472594f, -0.15563719f, -0.10845948f, 0.19973652f, 0.47115171f, 1.07380903f, 0.91429871f, -0.33235750f, 0.08636928f, 1.76564884f, -0.12370968f, 0.50813782f, -0.18873486f, -0.28125715f, 0.12760998f, -0.14313859f, -0.81596774f, 0.97507828f, 0.13362205f, 2.57707381f, -0.73076540f, -1.97108674f, -0.80204344f, 1.02584243f, 0.31371084f, 0.36497721f, -0.01685196f, -1.99506664f, -0.15257908f, 1.07243693f, 0.03839196f, 1.21694529f, -0.16337550f, -1.00064814f, 0.01605032f, -0.96946543f, 0.06994286f, 0.95013446f, 0.14815688f, 0.52887821f, 0.12406540f, -0.04729956f, 0.16436052f, -0.13765353f, 0.02058835f, -0.91529500f, 2.21274805f, -0.01047369f, -0.70574516f, -1.75839663f, -1.47397590f, 0.76404417f, -0.77956611f, 0.96657455f, -1.54328763f, 0.76044828f, -1.51364338f, -0.31615889f, 0.14938883f, -3.27589512f, 0.47944078f, 0.07292065f, 3.28866696f, 0.97834808f, -1.78436947f, 0.02310361f, 0.14395757f, 0.08408350f, 0.36971158f, -5.33939457f, -2.88978744f, -5.84595537f, 0.53783774f, -7.66012239f, 0.31344497f, -0.15912499f, -0.79904479f, 0.38234308f, -0.17235526f, -2.27306366f, 1.48493338f, -0.04618731f, 2.59946084f, 0.12148011f, -0.04910883f, 2.76927662f, -0.29563987f, 0.09938025f, -0.16404454f, 0.91598755f, 0.02592437f, 0.11085185f, -0.04656366f, 0.09783815f, -0.05577844f, -0.31942180f, -0.16188759f, -1.03318512f, 1.24683821f, -0.30044803f, -1.52343202f, -0.10242794f, 0.11402464f, 0.14908572f, 2.03730726f, -6.95010757f, 4.02345800f, -0.78359711f, 0.11171003f, -1.16279078f, 0.10650991f, -0.41844726f, -2.33824921f, -0.08284367f, -0.07761949f, -1.05201995f, 1.08251798f, -5.10654974f, 0.13387287f, -2.90502620f, -2.89182258f, 3.71612740f, 0.51287168f, -0.13635869f, -1.72991097f, -0.58321750f, 0.06099996f, -0.15934600f, -0.17779072f, 0.18393013f, -0.17292580f, 0.20359902f, 0.06257795f, 0.12686002f, -0.01480368f, -0.15480641f, -0.16082862f, 0.44168535f, -0.10675833f, 0.08887820f, 0.03391002f, -0.11972711f, -0.04470100f, -0.03707191f, 0.14298514f, -0.42054161f, 0.37875497f, -0.07825817f, -0.42529932f, -0.21590021f, -0.34100321f, 0.18196513f, 0.08329425f, -0.15986209f, 0.20096421f, -0.14099236f, -0.94688129f, -0.15120658f, -0.09242824f, 0.00072937f, -0.37284312f, -0.11558320f, -0.18438818f, -0.06254572f, -0.22625323f, 0.12768832f, -0.02064878f, -0.25362214f, 0.16106842f, -0.56057137f, -0.23897071f, -0.36261353f, 0.14468047f, -0.52860200f, -0.06422319f, 0.01241106f, 0.14625111f, 0.23285615f, 0.11838855f, -0.12021144f, 0.33993548f, -0.09813973f, 0.11242308f, -0.16677697f, -0.07975277f, 0.27286884f, -0.02410832f, -0.08560386f, 0.04289728f, -0.12054297f, 0.05436921f, 0.00279742f, -0.05540149f, 0.06066665f, -0.12680402f, 0.10614414f, 0.11166821f, -0.30930871f, -0.12387622f, -0.34816536f, -0.10802770f, -0.03193891f, 0.00314016f, -0.22566015f, 0.19116510f, -0.43777552f, -0.39136451f, -0.12393150f, 0.00881887f, 0.34259000f, -0.12688766f, 0.31400862f, -0.25652230f, 0.21858819f, -0.15731362f, 0.09848192f, -0.08104201f, -0.06557147f, 0.10056308f, 0.16162300f, -0.18535106f, -0.60297918f, 0.26626369f, -0.53814495f, -0.23770843f, 0.09284817f, -0.07060520f, -0.20209314f, -0.01077489f, 0.86771601f, 0.04017596f, 0.35874647f, -0.11359440f, 0.20410955f, 0.13115390f, -0.75765485f, -0.15091185f, 0.50401080f, -0.01208702f, 0.53235334f, 0.03413780f, 0.16857058f, -0.02053248f, -0.02987522f, -0.01203848f, -1.00498104f, -0.07712493f, 0.51144296f, 0.76453054f, -0.46331954f, -0.75090462f, 1.24485004f, 0.14964600f, -1.87781990f, 0.03384115f, 1.12343240f, 1.17289090f, -0.20488170f, -0.01084290f, -0.63968778f, -0.23954289f, -0.08865257f, 1.28240669f, -1.35772419f, -0.04738964f, -0.15660094f, -0.73027295f, -0.19960275f, 0.80443478f, -1.79358506f, -0.53467506f, -0.26581937f, -0.02936393f, -1.13716996f, 0.00047298f, 0.10653647f, -0.07978655f, 0.38268000f, -0.98411644f, 0.27184436f, 0.99164712f, -0.09064461f, 0.79588217f, -0.10043851f, 0.16737914f, -0.75881582f, -0.02123367f, 0.01375153f, 0.04932579f, 0.09629954f, -0.00064966f, -0.14938277f, -0.10645914f, 0.68481398f, 0.13206573f, 0.21869236f, 1.00767457f, 0.12210923f, 0.10883878f, 0.80425704f, -0.17822190f, 0.08685106f, -0.21988653f, 0.54026663f, 0.75720894f, -0.04011180f, 1.12324071f, -0.04657311f, 0.13920431f, 0.76280349f, 0.04851732f, -0.39980987f, -0.16032313f, -0.03305883f, 0.14833322f, 0.53987461f, 0.58970171f, -0.37163028f, -0.04197903f, 0.09317968f, 0.34684858f, 0.96631217f, -0.45328200f, 1.20186877f, 0.01823176f, -0.31829530f, -0.15105611f, 0.11747473f, -0.11163798f, -0.07663063f, 0.01303078f, 0.02168585f, 0.00440873f, -0.01201139f, -0.05378003f, -0.08351476f, -0.04840711f, -0.11913833f, 0.06137122f, -0.13071254f, 0.15969899f, 0.13144839f, -0.03842272f, 0.06726043f, 0.04290512f, 0.00332080f, -0.09461222f, 0.09911701f, -0.14713329f, -0.07012732f, -0.03505261f, -0.01571505f, 0.04692864f, 0.13583052f, 0.01879510f, -0.08331589f, -0.13739890f, 0.04227285f, -0.14996184f, -0.12359405f, -0.02807684f, -0.16608378f, 0.12832806f, 0.17311954f, 0.08741668f, 0.08864611f, 0.08949450f, -0.02066801f, 0.10904381f, 0.11519837f, -0.05831695f, -0.11473385f, 0.14399311f, 0.16742787f, 0.05291325f, -0.00051272f, 0.09097266f, -0.12070730f, -0.09118128f, 0.13092789f, 0.02446871f, -0.09114362f, 0.16618821f, -0.12679046f, 0.10879216f, -0.16611484f, -0.02411555f, 0.07366534f, -0.14698730f, -0.04688661f, 0.02072896f, 0.16975957f, 0.02931802f, -0.07847145f, 0.09737992f, 0.06962645f, 0.10262644f, -0.14748186f, 0.01647587f, 0.00225939f, 0.07684994f, -0.01691221f, 0.07154135f, 0.07561043f, 0.11246163f, -0.14744622f, 0.00504149f, 0.13377500f, 0.04088818f, -0.16482638f, -0.13265082f, -0.05205224f, -0.15851519f, 0.09946367f, -0.08976845f, 0.13710237f, 0.10585326f, 0.13534033f, -0.08161378f, 0.14525259f, -0.05673798f, 0.02748992f, 0.14088947f, -0.09530140f, -0.14286347f, 0.17244026f, -0.07665425f, 0.52511358f, -0.01917286f, 0.82058847f, 0.00305647f, 1.33075619f, -0.14663133f, 1.57214189f, -0.15957268f, -1.00956607f, 0.09918174f, -0.60242933f, -0.12489659f, 0.89722902f, 0.10618436f, -0.16816844f, 0.45610657f, -0.01545621f, 0.11327469f, -0.24478224f, -0.98199493f, 1.74278605f, 0.15276048f, 1.01742840f, 0.02997965f, -1.62371516f, -0.53003532f, -1.39684701f, 0.78803933f, -0.82310855f, 0.82215047f, -1.38863289f, -0.08813068f, 0.09363461f, 0.09503593f, -0.11607593f, 0.17513162f, -1.45995653f, 0.72174120f, -0.09474651f, 1.16099751f, -0.06270397f, 1.31930864f, 0.03284806f, -0.57382286f, 2.05256057f, -0.10195113f, 2.05080152f, -0.96447408f, -0.04542008f, -1.54662287f, -0.64847386f, -0.91990912f, -0.70127273f, 0.23612827f, 0.01573768f, -1.25578165f, 0.07548796f, 0.08105126f, -0.68681711f, -0.82687461f, -0.23098210f, -0.08972190f, 0.04266106f, 0.16521630f, -0.12018738f, 0.04755034f, 2.02196980f, 0.08054254f, 0.16463462f, -0.66576272f, 1.11160243f, 0.31493497f, -1.34766352f, 0.79509491f, 0.07259938f, 0.12035267f, 0.47466210f, -0.01528020f, 2.05826354f, 1.21300328f, -0.33255085f, -0.10405568f, 2.25481033f, 0.01848128f, -1.01251221f, -0.84296238f, 0.20764552f, -0.03989916f, 0.08042232f, -2.23806024f, 2.02945638f, -0.04210854f, 1.28086734f, -0.11698048f, 0.81691271f, -1.46407664f, 0.28989634f, 0.36712542f, -0.11534511f, -0.02636538f, 0.00887845f, -0.05763462f, 0.05913983f, -0.16798568f, -0.12898536f, 0.13003591f, -0.13627724f, 0.07816124f, 0.14915147f, 0.08877870f, 0.08558375f, 0.00270534f, 0.00670384f, 0.11405683f, -0.00953294f, -0.06722104f, -0.03659351f, -0.13808350f, 0.12668645f, 0.08959225f, 0.16295037f, -0.00058247f, -0.13025704f, 0.06055635f, 0.05972804f, -0.07910211f, 0.09252140f, -0.13793278f, 0.16749835f, -0.10591792f, -0.14166500f, 0.02910852f, 0.13070887f, -0.07094654f, 0.08412185f, -0.12372859f, 0.03244436f, 0.15123010f, -0.15606348f, 0.00843053f, 0.06775787f, 0.08728495f, 0.06068945f, 0.16555697f, 0.04365394f, 0.07063951f, 0.10211420f, -0.05011995f, -0.11846451f, 0.16086712f, -0.04498583f, -0.02086268f, 0.15042254f, 0.13593540f, 0.10387677f, -0.16052642f, -0.04687348f, -0.14405757f, 0.13362360f, 0.04165867f, -0.13495225f, -0.13589254f, 0.03467175f, -0.16587499f, 0.07607843f, -0.08405136f, 0.04927546f, -0.16479458f, 0.15592152f, 0.15554065f, 0.11232680f, -0.15890315f, -0.05664229f, 0.09297875f, -0.03271097f, 0.09733307f, -0.09577385f, 0.03917722f, 0.16436198f, 0.05877723f, -0.07854694f, 0.04918171f, -0.01216803f, -0.13146465f, 0.10750824f, 0.13488975f, 0.13712215f, -0.17097926f, 0.06148046f, 0.15145645f, 0.15859190f, -0.11970089f, 0.01444139f, 0.02398857f, 0.04527874f, -0.00531636f, -0.03960419f, 0.04819584f, -0.05819723f, -0.05515356f, 0.12261999f, -0.05503736f, 0.14268640f, -0.07083950f, 0.04797632f, -0.13246399f, -0.03817689f, 0.13670489f, -0.03652933f, -0.07768457f, 0.05214590f, 0.09457079f, -0.15811346f, -0.03036600f, -0.00398540f, 0.04935978f, 0.15598485f, -0.10208882f, 0.08493984f, -0.13950402f, -0.05462762f, -0.12176706f, -0.15216635f, 0.01198213f, -0.10401879f, 0.02703129f, 0.11025089f, 0.12520051f, 0.06040484f, -0.02937365f, 0.11316592f, 0.00381391f, 0.02431467f, 0.15333542f, -0.04363130f, -0.02182660f, 0.13795188f, 0.12760445f, 0.01412800f, 0.07162845f, 0.13744804f, 0.01017326f, -0.06636507f, -0.13816790f, -0.12723370f, 0.15112472f, 0.02635339f, -0.06346279f, 0.17060179f, -0.03397827f, -0.06381740f, -0.13563175f, -0.06344289f, -0.16667026f, 0.11434639f, -0.10691050f, -0.11692312f, -0.14993720f, -0.07676740f, 0.10451066f, -0.07018039f, -0.11604811f, -0.05319348f, -0.02640501f, -0.13613668f, 0.13939619f, 0.11265737f, 0.00027685f, 0.10817897f, -0.16821520f, 0.00189537f, 0.13705033f, -0.08012615f, 0.08218312f, -0.10460601f, 0.06531981f, 0.16747931f, -0.08882472f, 0.14087540f, 0.08039764f, 0.05018961f, 0.00827232f, 0.08642000f, 0.17141476f, -0.00600401f, 0.11850396f, -0.07840645f, 0.06734930f, -0.00190189f, 0.01011761f, 0.11919811f, -0.14152749f, 0.05132437f, 0.08199787f, 0.06777857f, -0.13177709f, 0.07791376f, -0.05417709f, -0.09560541f, -0.05327169f, 0.02245334f, -0.07389824f, -0.04860904f, -0.07515875f, -0.09091584f, -0.08445634f, -0.06384882f, -0.13965029f, -0.14340238f, -0.14859171f, -0.05235370f, 0.11651137f, -0.08911218f, -0.05185010f, -0.15435649f, -0.03121372f, -0.12407729f, -0.17271647f, -0.16801323f, 0.16975790f, 0.15026024f, -0.03926404f, 0.06679748f, -0.17034207f, -0.02273162f, 0.07587381f, 0.14422560f, 0.13648090f, 0.13033307f, 0.12038314f, 0.12275526f, 0.12805784f, 0.10620806f, -0.05716857f, -0.02251300f, -0.11271146f, 0.11801612f, -0.12662554f, 0.15277064f, 0.08892334f, 0.10599658f, 0.08568636f, -0.11648193f, -0.16314818f, -0.10325792f, -0.08053923f, 0.01993065f, -0.12764587f, -0.13321772f, -0.05752515f, 0.01126495f, 0.11418065f, -0.03489842f, 0.05630450f, -0.13695721f, -0.08860908f, 0.05057308f, 0.00618608f, 0.16846541f, 0.05854160f, 0.16529691f, -0.06760000f, -0.16812031f, 0.10679796f, -0.14344987f, -0.03381078f, -0.10026204f, -0.16379665f, -0.08273387f, 0.11385521f, -0.15828627f, -0.09902334f, -0.12294625f, -0.01217245f, -0.01309837f, 0.02490363f, -0.08418082f, 0.10180199f, -0.17136107f, -0.07839411f, -0.02161598f, -0.11246273f, 0.02794239f, -0.03541365f, -0.06274170f, 0.07153723f, 0.10601035f, 0.08042625f, 0.07625051f, -0.05084188f, 0.16979364f, 0.09987101f, 0.06711000f, 0.15282947f, 0.13775650f, 0.17201346f, 0.15882134f, -0.03924674f, -0.01334552f, -0.12912720f, 0.16825822f, 0.11138785f, 0.14771563f, -0.15634532f, 0.04898709f, -0.05677539f, 0.16034096f, 0.12617752f, 0.00107689f, 0.00029781f, -0.03629631f, 0.11656931f, -0.07135577f, 0.02616479f, 0.13299182f, -0.13053620f, -0.16994303f, 0.03293148f, -0.01402831f, 0.03212433f, -0.13471773f, -0.03481264f, 0.14932284f, 0.07331194f, -0.06928515f, -0.04755560f, -0.16025335f, 0.16338587f, 0.13647714f, 0.05760984f, -0.08788831f, -0.11119030f, -0.10928588f, -0.02158299f, 0.16807818f, -0.17035967f, -0.02919492f, -0.15114504f, 0.00495283f, 0.01296672f, -0.04585572f, -0.10414515f, 0.14379773f, -0.12420064f, -0.01931514f, 0.09612375f, -0.15493256f, -0.12062657f, -0.05145581f, -0.04453415f, 0.12418953f, -0.11035440f, 0.11614674f, -0.05497541f, -0.04309765f, 0.09412259f, 0.02131978f, 0.07202992f, -0.03757456f, -0.13248572f, 0.09106791f, 0.04219422f, -0.08879953f, -0.00256622f, -0.16629253f, 0.01065394f, 0.05081515f, 0.15716594f, -0.02529940f, -0.05730938f, -0.05034170f, 0.02732623f, -0.08761667f, -0.11571342f, 0.14591438f, -0.13573566f, -0.10186091f, -0.03593455f, -0.06032646f, 0.15708587f, 0.11398050f, 0.00311536f, -0.02549845f, -0.17047592f, -0.02593440f, -0.15976159f, -0.15181370f, 0.08943361f, 0.05703060f, 0.08817577f, 0.10147533f, 0.07284839f, -0.06377226f, -0.16848923f, -0.01056978f, 0.08551928f, 0.04656991f, -0.04200843f, -0.00244725f, -0.04914390f, 0.00238334f, 0.14435992f, 0.35644084f, 0.06457207f, 0.19627595f, -0.03107176f, 0.42469779f, -0.00725317f, 0.19387221f, -0.15722197f, -0.10371824f, -0.13338640f, 0.33129823f, 0.12125719f, -0.15412249f, 0.01048308f, -0.12786715f, -0.02092561f, -0.15989524f, -0.30475050f, 0.34334973f, 0.01511023f, 0.29919162f, -0.03855313f, -0.32729837f, 0.12735769f, -0.47742870f, 0.06315269f, -0.12403279f, 0.11709417f, -0.22703888f, -0.05311024f, 0.37191188f, 0.09356413f, -0.00406569f, 0.29517475f, -0.59218878f, 0.22799526f, -0.08992309f, 0.38394970f, -0.07580302f, 0.40295145f, 0.03583495f, 0.04536233f, 0.49760354f, -0.42779496f, 0.44146127f, -0.06333597f, -0.07088690f, -0.21426296f, 0.03902952f, -0.32028076f, 0.31240278f, 0.20161639f, -0.11130491f, -0.33201423f, -0.10590743f, 0.10301140f, -0.34561968f, -0.21979927f, -0.02347941f, 0.12513849f, 0.10618381f, 0.11726057f, -0.14346519f, -0.10304303f, 0.34387523f, 0.09278641f, -0.03611496f, 0.30059290f, 0.44223905f, -0.41986701f, -0.26285896f, 0.34729889f, 0.05750252f, -0.29700753f, 0.22111997f, -0.08316614f, 0.54428047f, 0.31351414f, 0.04915394f, -0.01537081f, 0.43827298f, -0.11462867f, 0.03184474f, -0.03068332f, 0.18768807f, -0.13224377f, 0.32279903f, -0.25509319f, 0.65822321f, 0.15068084f, 0.69163483f, 0.43291807f, 0.12305681f, -0.05731929f, -0.04780427f, 0.01099773f, -0.11306528f, -0.10077431f, -0.10801119f, -0.13595390f, -0.15078640f, 0.05236125f, 0.02383462f, 0.07975888f, -0.01958145f, 0.12893629f, -0.14145643f, 0.12404880f, -0.14245465f, 0.16204968f, -0.11359601f, -0.10630020f, 0.09386390f, -0.12833476f, 0.10380667f, 0.13485885f, 0.05817807f, -0.06323361f, -0.06905067f, -0.16495742f, 0.17036036f, 0.16453484f, 0.12238875f, -0.16044548f, -0.02646971f, -0.04262939f, -0.10065892f, -0.10821799f, -0.05421714f, 0.14133856f, 0.02666818f, -0.00941393f, -0.08054555f, -0.01350972f, 0.03967835f, -0.01289400f, 0.14197850f, 0.04378706f, 0.10625932f, 0.01252306f, 0.06966035f, 0.13950244f, -0.09996685f, -0.06599820f, -0.01822270f, 0.10148248f, 0.06017515f, -0.16341297f, 0.01825429f, 0.10646138f, -0.05509385f, -0.13517928f, 0.01058125f, 0.13917720f, -0.06099082f, 0.07915956f, 0.13737839f, -0.11001541f, 0.09754372f, -0.06713007f, 0.07478985f, -0.11859451f, 0.11742640f, -0.07284269f, 0.04284826f, 0.07470028f, -0.08728701f, -0.06488497f, -0.01724268f, -0.10886678f, -0.09788029f, -0.05028385f, 0.05185749f, 0.02127774f, 0.00480710f, -0.13161191f, 0.15826860f, 0.08743402f, 0.00906308f, -0.01472066f, -0.15182853f, 0.14005461f, -0.07185540f, 0.15193552f, 0.03638823f, -0.05553831f, -0.13306931f, -0.09866255f, 0.08893433f, -0.07355359f, -0.11649072f, -0.11978295f, 0.08811605f, -0.05286080f, -0.10910964f, -0.07350197f, -0.12805635f, 0.11544409f, -1.37908554f, -0.03097965f, -0.74568385f, 0.03975363f, -0.44490510f, 0.01656561f, -1.65870607f, -0.14766538f, 1.70668578f, -0.09746721f, 0.10235761f, -0.12113351f, -0.84774607f, -0.00025955f, 0.14143440f, 0.59724808f, -0.15560485f, -0.11104093f, 0.78280747f, -0.63745934f, -0.65633875f, -0.16379938f, 1.15063035f, 2.01237106f, 0.28968173f, -0.47823057f, 0.31576028f, -1.20622337f, 3.26754713f, 1.32718015f, 0.74786055f, 0.07479934f, 2.00597501f, 0.14725190f, 0.05853200f, -0.03053783f, 1.37360799f, 0.54641628f, -0.16412510f, -1.15471327f, 0.71839660f, -0.35871166f, -0.94190592f, 0.47390291f, 0.04578980f, 1.04200864f, 0.32025784f, -1.59898376f, -0.17057833f, -0.20938669f, 1.09299529f, 0.56414610f, -0.96679789f, -0.61276942f, -0.08437757f, 0.46122301f, -0.02287310f, -0.09085121f, -0.37185872f, -0.73462647f, 0.38253272f, 0.08689630f, -0.70269650f, -0.12954950f, 0.03784168f, 0.34408793f, -0.81198221f, 0.00597567f, -0.60513568f, -2.70911193f, 2.17160606f, 0.98416305f, 0.93777514f, -0.10271710f, -0.14303894f, 0.40696630f, 0.53253180f, -0.89983344f, -1.27974784f, -0.20908308f, -0.81153142f, -0.17717220f, -3.22288013f, -0.17210774f, -1.71727264f, 0.37394506f, -0.12041657f, -0.03114143f, 0.71501482f, 1.58926606f, -2.41990590f, 0.09995514f, -2.02360487f, 0.52684051f, 1.79943991f, -0.59963268f, 0.46849027f, -0.84215230f, -1.27927399f, 0.14733501f, -0.58558661f, -0.09696163f, 2.11752582f, -0.15342958f, 1.46943378f, -0.16386002f, 0.90404737f, -0.13540399f, 0.01829545f, 0.10774961f, -0.41921100f, 0.06539460f, 1.21283877f, 0.10971260f, 0.11640240f, -0.36713400f, 0.11350828f, -0.07472295f, -1.89937520f, 0.31634814f, 1.06492031f, 1.25716543f, -2.24977398f, -4.81758928f, -1.09497774f, 0.05994429f, -4.49611568f, -0.06685049f, -0.59348464f, 2.01908493f, -0.88453603f, 0.11137679f, -1.31385934f, 0.14765923f, -0.15117176f, 0.94987899f, -3.98562884f, 0.12712875f, -0.00228240f, -1.14069855f, -1.17880487f, 1.57629609f, -1.88155210f, -1.29456830f, 1.26741350f, -0.52451509f, -0.66851860f, 0.31323335f, 0.15391730f, -1.38290727f, -0.45145991f, -4.37300110f, -0.18130520f, 2.31367707f, 0.03232019f, -1.62545717f, -0.15537316f, -0.11673866f, -0.22273003f, 0.05133825f, -0.28313404f, 0.02010156f, -0.29862016f, 0.00811957f, 0.16177619f, -0.12603842f, 1.66022456f, 0.03447466f, -0.31207499f, -1.58781528f, -3.28694248f, -1.85023022f, -0.31068707f, 0.86655647f, 0.00771475f, 0.08450390f, -0.69985938f, 2.64933252f, 1.10130870f, 1.87370884f, 0.72093064f, 0.01176593f, 1.73158014f, -0.05092672f, 0.22112052f, -1.05403531f, -0.62315667f, 0.08771450f, 0.13431764f, -0.52178508f, 1.18454301f, 0.05344699f, 0.28484401f, -1.52310514f, 0.08366269f, 0.05602528f, 1.87745762f, -0.01176885f, 0.81666726f, 0.07590807f, 0.53143054f, 0.03013275f, 0.15063812f, -0.00233360f, 0.49778041f, 0.02164728f, 0.96799213f, -0.11759312f, -0.33131635f, 0.09545779f, 0.52920717f, -0.09421521f, 0.63562065f, -0.17151973f, 0.15817860f, -0.07235871f, -0.10573746f, -0.15050575f, 0.41181481f, 0.21187082f, 0.87610298f, -1.21612990f, 0.18386000f, 0.54584801f, -0.81768095f, 0.04437363f, -0.56266725f, 0.86658460f, 0.05884833f, -1.15027034f, -0.10853288f, 0.05440733f, 0.77793223f, -0.48851714f, 0.02899154f, -0.90192109f, -0.27743042f, 0.39493635f, 0.10981953f, 0.43291333f, -0.15740021f, 0.57028365f, -0.80969083f, -0.61634523f, -0.25542352f, 0.69522840f, 0.16924736f, -0.07439613f, 0.03671185f, -0.05105893f, 0.42607215f, 0.44045219f, -0.66926295f, 0.11718757f, 0.07744367f, -0.49652624f, 0.15524723f, -0.04146136f, -0.05699404f, -0.07127420f, -0.29927453f, -0.12893535f, 0.36441630f, 0.02837113f, 0.08977062f, 0.02697006f, 0.58663392f, -0.01602356f, 0.63642895f, -0.77292311f, 0.70816052f, -0.17177825f, -0.78315359f, -0.29426870f, -0.09973916f, 0.02002929f, -0.39545563f, -0.05324066f, 0.40025187f, -0.43770152f, -0.16988194f, -0.08544098f, 0.77317023f, 0.09915145f, -0.16444178f, -1.12246048f, 0.66800660f, 0.09553341f, 0.49282917f, -0.30820313f, 0.59145898f, 0.12094495f, 0.08332434f, -0.36943457f, 0.09189028f, -0.40826839f, -1.29182386f, 0.27040887f, -0.02884789f, -0.06233644f, -3.30818295f, -0.13467310f, 1.71386373f, 0.11905602f, -0.13104711f, 0.02405151f, -1.38761437f, 0.01448021f, 0.52188611f, -0.16864665f, 1.80365133f, -0.02284527f, -0.15706709f, 0.12381473f, 0.07966010f, 1.05123866f, 0.01986106f, 0.02279167f, -2.70605373f, 1.36865866f, -2.18019652f, 2.98893261f, -1.69447386f, -5.40427113f, 4.87626362f, -2.98591304f, -0.53816295f, -2.46862292f, 1.01613188f, 2.89999962f, -3.00478983f, -0.05225624f, -2.66624808f, 0.86950290f, 0.06791674f, 3.66149092f, -0.99001765f, -2.59150028f, 0.00820984f, 0.55144769f, -1.40681565f, -1.44108784f, -1.47337735f, -0.00993147f, -1.31490266f, -1.86741793f, -0.67920929f, 0.26495174f, -0.14229369f, -3.41882086f, 0.89624083f, -2.65375209f, 0.01897595f, 3.18809819f, 0.14696147f, 6.51430941f, -0.02752406f, 0.07646574f, 1.74291742f, -2.12304735f, -1.14575744f, 0.04036760f, -0.21305251f, -0.05592848f, 0.15202968f, -0.23886345f, 1.66742778f, 0.07554457f, -1.85323715f, 1.49545729f, -1.26069129f, 0.98668242f, 2.77233195f, 0.68555981f, -0.12161869f, 0.05111618f, 4.91433954f, 3.38804197f, -3.47408366f, 4.16170502f, -4.57662630f, -0.11962212f, 1.26964712f, -0.08308017f, -1.90154338f, 2.81980276f, -1.47927654f, 0.13645388f, -0.02441924f, 2.66574430f, -2.47286010f, 0.02917105f, -2.19835997f, 2.63334942f, 4.01095676f, -0.33246559f, 3.51970387f, -3.61571169f, -2.71480250f, -0.15375489f, -0.09659534f, -0.14733051f, 0.06749021f, 0.01952112f, 0.14243698f, -0.00973475f, 0.08031201f, -0.15179004f, 0.07489949f, 0.12676206f, -0.06225606f, -0.08026396f, 0.02923064f, -0.00400139f, -0.16907030f, 0.02409755f, 0.13353398f, -0.17283082f, 0.13647720f, -0.05015976f, -0.03524339f, -0.13840672f, -0.03699990f, 0.15228865f, -0.03732678f, 0.04632232f, 0.00381346f, -0.10344937f, 0.15827063f, 0.16064706f, -0.01231451f, -0.14062200f, 0.14673808f, -0.16042764f, 0.05215634f, 0.07832307f, 0.09408781f, -0.09345178f, 0.15043068f, 0.08114722f, 0.09071192f, 0.04047899f, -0.14187498f, 0.01068430f, -0.11233451f, 0.00735770f, 0.06650746f, 0.12175682f, 0.09028813f, -0.10289044f, 0.13014740f, 0.02937295f, -0.12297380f, 0.09540308f, -0.13561574f, 0.16794637f, 0.14354822f, 0.04585212f, 0.02216497f, 0.02428028f, -0.02110170f, 0.17025018f, -0.05247506f, 0.09254539f, -0.01270057f, -0.01256262f, 0.10250714f, 0.03096111f, 0.15587720f, 0.14660236f, -0.10972440f, 0.03070538f, -0.06938578f, 0.00258797f, -0.07317995f, 0.03497230f, -0.07451458f, 0.01767989f, 0.11247253f, -0.05638564f, -0.11526033f, 0.17244658f, 0.00027589f, -0.14243780f, 0.09715253f, -0.07360170f, 0.11088371f, -0.11365138f, 0.16942912f, 0.09260041f, 0.10495359f, -0.10473370f, 0.16942295f, 0.01691554f, 0.12453124f, -0.05641290f, -0.08249733f, -0.00958242f, -0.04766515f, 0.02135752f, 0.15667601f, -0.05272399f, -0.24207066f, -0.17198525f, -0.23222479f, -0.08380406f, -0.34129560f, -0.05670673f, 0.65613103f, -0.14273463f, 0.01738165f, 0.00899675f, 0.04037872f, -0.16007465f, -0.12424543f, 0.24441452f, -0.03629315f, 0.11972624f, 0.13941872f, 0.14887822f, -0.32243693f, -0.10045404f, -0.17705610f, 0.16698346f, 0.14361380f, 0.24031959f, 0.46271288f, -0.11961265f, -0.20965143f, 0.06909728f, 0.16133669f, -0.07548484f, 0.18639638f, 0.04846286f, -0.02701804f, -0.21314625f, 0.52564371f, 0.01094859f, 0.00471485f, -0.34331778f, 0.12783042f, -0.20012093f, 0.11505648f, 0.37357464f, 0.46104756f, -0.02388229f, 0.37101814f, 0.26631802f, -0.17384128f, 0.21843410f, -0.21654855f, 0.35211158f, 0.28798634f, 0.00599683f, -0.13082479f, 0.25513646f, -0.00662720f, -0.08210304f, 0.33650762f, 0.29825538f, 0.13960275f, 0.03191917f, -0.13644905f, -0.14366072f, 0.07292824f, -0.00007133f, 0.07585749f, -0.12951812f, 0.08762311f, 0.03487624f, -0.01555065f, 0.12780105f, 0.43974563f, 0.35006395f, -0.12407076f, 0.09521583f, 0.12604159f, -0.08024389f, 0.15238921f, -0.06451967f, 0.13260482f, 0.09819500f, -0.33758324f, -0.17194733f, 0.22797707f, 0.35443640f, 0.02093362f, -0.17132926f, -0.19296582f, 0.43495926f, -0.07178568f, 0.08817080f, 0.07700811f, 0.24200971f, -0.06482265f, 0.21308085f, -0.06726742f, 0.21399216f, 0.00777142f, 0.04993734f, 0.16800302f, 0.05438332f, -0.07007674f, 0.08218879f, 0.03247946f, -0.14760683f, 0.45985645f, 0.11996728f, -0.71373296f, 0.03886232f, -0.51234460f, -0.11577561f, -0.40069273f, 0.12003475f, -0.16949588f, -0.30825737f, 0.15723857f, -0.04888142f, -0.33645803f, -0.57053441f, -0.03899024f, -0.85294455f, 0.23254868f, -0.27231562f, -0.88390404f, -0.40251142f, -0.57255870f, 0.14568774f, -0.83791375f, 0.11402694f, 0.14179489f, -0.03525290f, -0.38334098f, 0.61192518f, -0.08566618f, -0.25065652f, -0.59679449f, -0.14509797f, -0.07941096f, 0.63925958f, -0.22311570f, -0.42126271f, 0.73756778f, -0.92616159f, -0.01515300f, -0.90695894f, 0.62111723f, 0.29158565f, -0.08185711f, 0.04383973f, 0.29205266f, 0.13210241f, -0.28248116f, -0.45440555f, -0.11888654f, -0.86793959f, -0.05009167f, 0.02185830f, -1.01300097f, -0.39947984f, -0.04565215f, -0.15072919f, -0.36852732f, 0.16084574f, 0.11583453f, 0.02644316f, -0.24055281f, 0.05815067f, 0.06356999f, 0.29956374f, -1.05134273f, -0.30452630f, -0.77202076f, -0.13246821f, -0.12565324f, 0.02964835f, -0.67722309f, -0.39637074f, -0.41637903f, -1.77347481f, 0.21452110f, 0.11112061f, 0.27960575f, -0.04315220f, 0.68700248f, -0.66405809f, -0.13261981f, 0.01747530f, 0.32453892f, -1.18194497f, 0.80867058f, -0.15595111f, 0.86450803f, -0.14888911f, -1.26147413f, 0.26660576f, -0.36416265f, 0.33714318f, 0.19746113f, 0.10927594f, -0.23566607f, -0.06321109f, 0.78399223f, -0.05644222f, 0.11928850f, 0.08039013f, 0.33682707f, 0.16327523f, -0.81843442f, -0.08343907f, -0.01389773f, 0.08404496f, 0.12373362f, -0.01287442f, -0.16523416f, -0.12589502f, 0.03963874f, -0.08690556f, -1.60776997f, -0.49491608f, 0.29564947f, 0.69199425f, -0.40946099f, -1.28425896f, 0.46033847f, -0.15210114f, -1.86277461f, 0.05020713f, -0.10192158f, 0.74871695f, -0.42213851f, -0.01348619f, -0.89385176f, -0.30975011f, 0.02664342f, 1.00422525f, -1.86114120f, -0.20973633f, -0.11492848f, 0.79424238f, -0.90987748f, 0.62564015f, -1.43243146f, -0.46051714f, 0.08099836f, -0.14535621f, -1.10917985f, 0.04843794f, 0.08341321f, -0.15595458f, 0.19115837f, -0.79972363f, 0.65430516f, 0.53470069f, 0.02484392f, -0.21312770f, 0.05410582f, 0.05127378f, -1.08203709f, -0.24983105f, -0.14712581f, 0.09079653f, -0.10175431f, -0.11719497f, -0.02278365f, -0.13931410f, 0.56289798f, -0.07590719f, 0.16243692f, 1.39124763f, -0.64288861f, -0.75034261f, 0.31371918f, -0.14863102f, 0.05099492f, -0.03351932f, 0.10212566f, 0.10791978f, 0.20363627f, 0.77354604f, 0.28535402f, -0.08949125f, 1.19758427f, 0.08125532f, 0.37598425f, -0.14944266f, -0.24670017f, 0.16246055f, 0.80489790f, -0.27705404f, 0.37767762f, 0.01797961f, 0.67205471f, 0.41642147f, -0.07458610f, -0.15528157f, 0.81779003f, -0.03596509f, -0.38136387f, 0.12677768f, -2.10147905f, -0.01731392f, 3.35728431f, 0.13693962f, 0.71999604f, -0.05307873f, -0.53954065f, 0.16213940f, 0.44961816f, -0.02487175f, 0.88655257f, -0.17134534f, -0.39561191f, 0.08514526f, 0.03478044f, -1.78581941f, 0.07035217f, 0.12563109f, -3.05369496f, 0.55053777f, -0.08638055f, 2.52120495f, -1.81936526f, -4.86064577f, -0.83007306f, -0.03440006f, -5.13340282f, -1.13189602f, 0.14858529f, 3.78444123f, -0.44335827f, -0.11299016f, 0.94893664f, 0.64953023f, -0.11619209f, 4.16577196f, -4.30627728f, -2.41557884f, -0.16897751f, -1.66339791f, -0.40710384f, 0.68117201f, -2.41160941f, 0.18725544f, 1.36263132f, -0.52353173f, -1.68282390f, 3.19222283f, 0.09692170f, 0.16929825f, 0.69060510f, -5.11166763f, 2.19814968f, 3.92046571f, 0.16250946f, -0.49152946f, 0.12664783f, -0.05783759f, -0.47294706f, 0.03208486f, -0.31304657f, -0.01396005f, -1.17178190f, 0.07315379f, -0.16482416f, -0.02916380f, 0.01088155f, -0.16799134f, -1.13528979f, 1.17128193f, -2.13020444f, -1.27873909f, 2.88802195f, 0.97285259f, -0.15529357f, -0.04320332f, 0.42554024f, 3.68785429f, 0.78574902f, 2.04422069f, 1.74222362f, 0.07313558f, 0.75319493f, 0.00668770f, 0.15491234f, 1.78627682f, -1.18353045f, 0.00976290f, 0.83234823f, -1.24087000f, 